0.0123909265
-0.016826443
-0.008347526
0.052186437
0.03420929
0.056673832
-0.005557336
-0.0014069229
0.010324925
-0.07481412
-0.044133704
0.07594932
0.028975196
-0.05130095
-0.0116935745
0.06820943
-0.041085135
-0.0035425425
0.050649457
0.06547687
0.03552778
0.070389025
-0.05797887
-0.014077451
0.047452897
0.02825436
0.009668663
0.033190183
0.020565972
0.033587165
0.03325502
0.02582901
-0.03818693
0.03284073
0.06566522
0.008438498
-0.024922658
0.07285138
0.013479263
0.06156888
-0.04233039
-0.07521188
-0.007665083
-0.03319004
-0.006712854
-0.011173092
-0.065683946
-0.048623346
-0.023964416
-0.017397828
-0.055974964
0.021832377
0.029963784
-0.04519377
-0.024524223
0.028369784
-0.06334603
-0.0651944
0.005485989
0.06649766
0.012773886
0.05015447
-0.0037332699
0.01089862
0.05733625
-0.017487384
0.033669874
0.04821024
0.03222301
0.033605933
-0.042158928
-0.01944783
-0.004879698
-0.07392152
0.0022505894
0.012858249
0.052817203
0.022865936
0.016040668
-0.038800117
0.065260194
-0.057085603
-0.03176475
0.038196616
0.006006576
0.07060773
0.06576631
0.064704604
0.06074325
-0.048437428
0.009948283
-0.011747211
0.045655772
-0.05429758
-0.0021901503
-0.0005562231
-0.073108315
0.02712173
0.014497273
0.07399357
0.05643826
-0.036904864
0.003233336
0.05968543
0.06878952
0.013493121
0.05575385
-0.05662214
-0.060970996
-0.056306526
-0.06141953
-0.04479885
-0.06403249
0.06221304
-0.040981565
-0.018576741
0.018326938
-0.057966486
-0.06928045
-0.047441356
-0.026433367
0.029943466
0.041895054
0.059165396
0.0700436
-0.075994544
0.02382017
-0.07437951
0.073563986
-0.07237658
-0.051996812
0.039387852
-0.009116188
0.06960524
0.04945918
0.056958742
0.044734858
-0.04265085
-0.032612283
-0.020244967
-0.056867935
0.039168693
0.05953311
-0.022420008
0.019478232
0.04734075
-0.037505418
0.027714811
-0.012304634
-0.065954395
-0.033280723
0.018713996
-0.0038853362
0.008877642
-0.02802413
0.06682696
0.0542532
-0.01950254
0.03018675
0.030237287
0.0068917572
-0.043781806
0.00431104
0.030814648
0.018174216
-0.06901839
0.059130795
-0.022565436
-0.007586032
-0.026004877
0.07065847
-0.04273958
0.049263306
-0.07177754
0.025005184
-0.028679155
-0.01609024
0.073885255
-0.051478203
-0.009502426
-0.028831534
-0.029847614
-0.034479223
-0.027239863
0.063503765
-0.030786175
0.06457258
0.040779665
0.041942827
0.031396635
0.05002389
-0.07102486
-0.075355306
0.0004928112
-0.024182048
-0.021212276
0.073547535
-0.0040120706
-0.058508925
-0.03801953
-0.014539894
-0.026535995
0.014035046
-0.015062999
-0.026892915
0.06435292
0.050900258
-0.026706927
0.04938727
-0.007167883
-0.062359367
0.0704233
0.04035674
-0.026012506
0.06988155
0.015564531
0.0034502968
0.046562947
0.01977104
-0.01933654
-0.028293993
-0.010271162
-0.0735026
-0.020357516
-0.068894915
-0.008758396
-0.006462708
0.066477545
0.050143354
0.006032191
-0.070410594
0.015821993
0.0445268
0.04314384
0.052832253
-0.057909705
-0.010915659
0.058833905
-0.059204478
-0.018492505
-0.0737224
0.037022054
0.03777162
-0.0107763335
0.0701404
0.039785832
-0.027563743
0.009875864
-0.046617404
-0.027228795
0.0011814982
-0.03925375
0.0010198131
0.010932192
-0.04003871
-0.034523137
-0.008139215
0.05193571
-0.039927706
0.04842279
-0.068653956
0.07112519
-0.033285294
0.015076712
0.0070022717
0.014550455
-0.032314565
-0.074765675
0.02273877
-0.06552221
-0.013684116
-0.010431096
0.020130798
-0.05752059
0.025851473
-0.050698142
-0.008141711
-0.03317595
0.021358833
-0.031339664
-0.038025044
-0.0026196241
-0.02066809
-0.00062733144
0.054706685
0.06873105
0.0014520884
-0.048513036
0.04669787
0.042515486
0.0151056945
-0.031912435
-0.04362997
-0.012854792
-0.029731173
0.06629018
0.041836873
0.06377257
-0.0538085
0.018567659
0.05198305
0.028972976
-0.033564042
0.014377825
-0.011143565
-0.07081893
0.013360091
0.04299213
-0.02616791
-0.06261252
-0.034321252
0.009086281
-0.0026270673
0.029784262
0.06870932
-0.06567374
-0.047301956
0.07163762
0.06456684
-0.025239617
-0.04469049
0.004263364
-0.07057769
-0.0097095
-0.023943372
0.026528582
0.061069928
-0.059816208
-0.0528052
0.025668435
-0.01603635
-0.027956367
-0.0032059401
-0.015875246
-0.017722163
0.009521611
0.07181849
-0.013158351
0.00035595894
-0.020649828
0.059201635
-0.052708253
0.014978491
-0.059585214
0.023882695
0.035947315
0.0067647398
0.037333935
0.025517821
0.048823245
0.0020684972
0.07111389
0.02091261
-0.064079985
0.026520118
-0.07408513
0.006287366
0.0748818
-0.06968562
0.07605555
-0.011732079
0.073833905
-0.06088876
0.059435032
0.05620248
0.049833648
-0.07059425
-0.042907603
-0.061444364
0.044005193
-0.03419254
-0.048545986
0.07322986
-0.026513565
-0.02512749
-0.075508654
-0.01860281
-0.051801354
-0.07601663
0.05014389
-0.0044535026
-0.07459445
-0.014325213
-0.062022213
0.01800415
0.049217828
-0.012950301
-0.014920175
0.0030942783
-0.0042922944
0.060221337
0.037539482
-0.010721587
0.045105636
-0.059298858
0.03170891
0.06316931
0.040956765
0.05888746
0.022191726
0.045961395
0.06006988
-0.06222512
0.043852046
-0.0043215305
0.03652049
-0.0096110925
0.043197766
-0.050644472
-0.011044815
0.0673045
0.03800349
-0.066763766
-0.009329364
-0.010445133
0.030075662
-0.026322369
-0.0011289716
-0.049385164
0.057662793
0.012287296
0.057389133
-0.04604698
0.057408832
0.0031565428
-0.074656166
0.040989265
-0.054126956
0.055592813
0.0218651
-0.07004047
-0.032776043
-0.04056032
0.005908631
0.07563635
0.06457118
-0.014951345
0.07093357
-0.021033023
0.06890779
-0.054682665
0.054373108
-0.013456762
-0.006188743
-0.004483342
-0.030484196
0.07132182
0.06899319
0.06279912
0.03727708
-0.06099947
-0.043937646
-0.07200656
0.045857966
-0.0143856555
0.07480287
0.029437132
0.050607584
-0.062825084
0.04833588
-0.052088823
-0.021418784
-0.06627727
-0.050879925
-0.03633266
0.022562288
0.012714118
0.05291427
0.06942757
0.05872696
-0.06610159
-0.0020737052
0.061783932
-0.029184036
0.022475913
-0.04179871
0.050131895
0.042655
-0.047410004
-0.058373787
0.06144295
0.057300635
-0.009897128
0.03715975
0.07223115
-0.003825985
-0.0423658
-0.068619445
-0.04821064
-0.035030186
-0.011640161
0.015409127
0.074731626
-0.029482082
-0.023563143
0.02917426
0.03142663
-0.04889164
-0.031072006
0.01556275
-0.0097185075
0.06441576
0.05861155
-0.011893913
0.016037002
0.049740918
-0.02806959
-0.0058815256
-0.046931304
0.0638156
-0.07359102
0.010374695
-0.05235987
-0.011994168
-0.035855033
0.07596461
-0.019401006
-0.041110408
0.019441947
-0.014159922
-0.05576394
0.02311346
-0.06727034
0.06836479
0.0685231
0.0054231957
-0.028788116
0.025545806
0.073992155
0.0006826818
-0.06804438
0.013851427
0.07083353
0.038406543
0.008482248
0.016905218
-0.033891782
0.05702635
-0.051748414
0.05831503
0.07061771
-0.04498923
-0.026646338
0.016773485
-0.06303512
-0.049472716
0.004128091
-0.07634204
0.0023525655
0.053470604
-0.052329592
0.024965674
0.06836624
-0.035753462
0.066844635
0.05991686
0.051319428
-0.0023242682
-0.015123334
0.0115128085
0.010239139
0.039148577
0.041341238
-0.009263635
0.056642033
-0.051980846
-0.02308315
0.07115879
-0.07226334
0.008720741
-0.060835984
-0.017372161
-0.06790909
-0.0468167
0.034407698
-0.06134629
0.072365485
0.028583534
-0.030179415
-0.055691082
0.06826811
0.029188171
0.02010151
0.06321914
0.024973556
-0.012668379
0.023553498
0.020534255
0.035857543
0.06868898
-0.07550028
-0.07190521
-0.06367775
-0.056863148
0.03470964
0.07451386
-0.06680233
0.05686588
-0.062088046
0.0071736053
0.023477979
0.027413473
-0.060353477
-0.020533238
-0.033475816
0.053120323
-0.05017085
-0.06830952
0.047678046
-0.02304985
0.057950653
-0.011889301
-0.053470127
0.072905384
-0.06353744
-0.022122014
-0.06102232
0.059458427
0.06234003
0.000511311
0.044889152
-0.011367694
-0.0013857484
-0.029705882
0.0012169257
-0.04116326
0.0059085414
0.028939188
0.054339238
-0.039230246
0.039111942
0.051644005
-0.044082947
0.015683703
-0.00012356043
-0.004052721
0.034082904
0.027015224
-0.02443935
-0.02035686
-0.014920775
0.043021426
0.03780794
0.073570095
0.037181556
0.0128705725
0.06402647
0.053831823
-0.069563285
-0.060936697
0.019859806
-0.036480397
0.053456165
0.013670117
-0.027286015
0.029199712
-0.017370049
-0.07105617
-0.029825605
-0.069270276
0.029495388
-0.025548115
-0.00955338
-0.02490374
-0.06495051
-0.01596471
0.007083796
0.046853624
0.014761366
0.03189674
-0.017446037
-0.0071053877
0.07079003
-0.0036743507
0.051170878
0.0035079494
-0.024853002
-0.04779453
-0.0043922216
-0.03255883
-0.011789158
-0.0015161932
-0.0014453903
0.04868538
0.040325068
-0.043342885
0.07260812
0.06816078
0.004346855
0.056594126
-0.060854297
0.009557895
0.030517913
-0.031663638
-0.028124042
0.049002536
0.014899366
0.059103556
-0.0032696575
0.0068108737
0.06355139
-0.050384294
-0.011450313
0.060788564
-0.022142224
0.039846763
0.0375204
-0.032024965
0.031156428
-0.046790972
-0.06187544
0.05351662
0.07610687
-0.06369592
-0.017396554
-0.010454237
0.05874739
-0.031810593
0.023446701
-0.020662662
-0.057952832
0.036231324
0.03389553
-0.026188064
-0.06823761
0.05270637
-0.013651781
-0.063618384
0.0142454505
0.038628854
-0.05316957
-0.05437377
-0.026323006
-0.027777497
0.0030951574
0.041156903
0.06294934
0.0063427314
0.050754674
0.04281483
0.0429876
-0.002559103
0.026842758
-0.06562363
0.026581727
0.05323223
-0.015709084
-0.04269629
0.07213231
0.038374178
-0.07436402
-0.014848389
-0.03725456
0.036804423
0.025516272
0.0711791
0.066620566
-0.07495937
0.0019924566
0.067201026
0.06053657
-0.037758294
-0.005328417
-0.058807008
-0.066287905
-0.07041762
0.05264718
0.01715684
0.0050241053
0.076106735
-0.0143790655
0.012796074
0.0050181895
0.042646423
-0.020247608
-0.03288018
-0.041981988
-0.03222419
-0.038817488
-0.038176153
0.06677871
0.024620242
0.06498156
0.058721073
-0.044739027
-0.021789305
-0.060576096
0.04240396
0.023680024
0.0511147
0.028263643
-0.04544346
-0.05470646
-0.03432644
0.033218257
0.07375967
0.002690591
0.020323202
-0.07111954
-0.06654579
-0.059847377
0.064156465
-0.06689487
-0.048102386
0.0077052265
-0.0737979
-0.013843708
0.070407905
-0.064856485
0.015590221
0.05195517
0.0110401735
-0.063667886
0.01781676
-0.0013774484
0.057442494
-0.066933095
-0.0037234724
0.045731947
-0.04264422
0.008763202
0.057734497
0.06405134
-0.02476871
-0.005412996
0.055108167
0.05397705
0.02983851
-0.05457862
-0.045978144
-0.042383697
0.058373697
-0.069624506
0.053056724
0.0048550814
-0.0041957647
0.028797999
-0.048357867
-0.058753118
0.032137528
-0.07275181
0.022284977
-0.045479797
-0.043863513
0.0051863566
0.04680723
-0.06864659
-0.04611984
-0.02360551
0.0029499456
-0.07244692
0.044844545
-0.035368666
-0.057209186
-0.0649437
-0.028227907
0.05310812
-0.06035404
0.05746164
0.06274793
0.06663563
0.06439128
-0.029063895
0.05397848
-0.06538822
-0.04996489
-0.0019818544
-0.022416692
-0.0276133
0.04046274
-0.0540782
0.04594046
0.07121123
0.007055469
0.05425165
-0.06759053
0.050591014
-0.04834629
0.07407523
-0.039032478
-0.04323904
0.04003352
-0.018218145
0.006401427
0.037430793
0.009493142
0.015099995
0.00039794296
0.0676732
0.061900087
-0.047574334
-0.0012423247
0.043064445
0.035426125
-0.01288572
-0.010892652
0.03968419
0.054667808
-0.0608131
0.03828016
-0.040398654
-0.07351138
0.043565482
-0.051364746
0.05593387
0.0021523908
-0.010419995
-0.03486777
-0.03996949
-0.01954443
0.0017459467
0.061988913
-0.049772672
0.036841817
0.06702531
0.01949764
-0.05693863
0.0584073
-0.0738529
-0.06408576
-0.04929055
-0.04970513
0.07274186
-0.06842883
0.05407334
-0.020345628
-0.07384953
-0.012664452
0.060183056
-0.035480794
-0.005029276
-0.05345984
0.050056316
-0.044019807
0.023710266
0.06761774
0.008484341
-0.02997125
-0.058058716
0.016823493
-0.064211085
-0.037669342
0.07303996
-0.07523003
0.07591479
-0.03818145
0.024761625
0.04389441
-0.059242837
0.023881309
-0.030273922
-0.027054984
0.051297493
-0.061801814
-0.0627991
-0.06246121
-0.035412524
0.014909379
-0.03538944
-0.058110274
-0.0030400082
-0.047991898
-0.062849864
0.05921056
-0.06018915
-0.073098905
0.029702373
-0.058338374
-0.021149375
-0.02088501
-0.032761917
0.030017711
0.010249406
-0.06495228
-0.0003239736
0.042888835
-0.07104625
0.00230024
0.0508542
0.0715914
0.029059015
0.0041259304
-0.019715548
-0.04918517
-0.05406025
0.010989435
0.038809076
-0.041821104
0.04327088
-0.040243942
-0.067794666
-0.05884435
0.05366657
-0.0376229
0.07275393
0.017970562
0.07177282
0.0026767328
-0.044736587
0.020624742
-0.017440848
-0.07491174
-0.030110396
0.015450016
-0.073596776
-0.049315475
-0.0400932
0.0594585
-0.03852044
-0.009571426
-0.06110887
-0.07106769
0.052261956
0.028773986
0.00356102
-0.039455835
0.015384018
0.031004593
-0.020669326
0.048175104
0.045675382
0.056250684
0.0003171414
0.026292361
0.04682511
0.06233824
0.036130816
0.03859286
0.0008637011
0.023882873
0.031194456
-0.07620857
-0.015087448
0.035979487
0.06567948
0.004962884
0.05732102
0.068273745
-0.053232655
0.015608549
-0.049925745
-0.0009072125
0.04986448
0.050268374
-0.061642516
-0.06505767
-0.0030395538
-0.04868961
0.025644206
-0.05297515
-0.050973743
0.05188731
-0.07399186
-0.040662218
0.012529165
0.013527058
-0.022284575
-0.044664018
-0.029139739
-0.07124592
-0.05442866
-0.027712628
-0.014102992
-0.022483453
0.037005685
-0.027074173
-0.034119826
0.04114917
0.06694307
-0.06538199
0.06478851
0.055610977
-0.0064436644
0.011966862
0.019782126
-0.043363437
-0.037257563
0.003670238
0.03438472
0.07527853
-0.06683896
-0.020584214
-0.053717326
-0.03882484
0.06787034
0.042563602
0.023351304
-0.02237118
0.06350943
-0.0152282715
-0.05878456
0.03206058
-0.04747604
0.0082136765
-0.045538478
0.062052093
0.03214498
0.010511056
0.021988474
0.050910287
0.07290243
-0.06343882
-0.017645046
-0.017114803
0.0482798
0.05509863
-0.009528078
0.037862338
0.07202075
0.01101283
0.050279997
-0.058692824
0.0396256
-0.0500638
0.041590653
0.066923864
-0.05009413
0.012956612
-0.042324945
-0.016084358
-0.05189888
0.027463667
0.04918901
-0.010975286
-0.05063843
0.036238007
-0.067919634
0.07471109
-0.0030887872
-0.016915068
-0.064643964
0.033913374
0.062414892
0.014827579
-0.046854407
-0.05127286
-0.019200105
0.070277505
-0.034013305
-0.01735428
0.03925491
0.028653212
0.0720165
-0.070001036
-0.061515167
-0.040390678
0.028726071
-0.051286913
0.049248494
0.04525558
0.01042527
0.037662424
0.024698868
-0.07274382
0.037694685
-0.025394384
0.04080198
-0.05197828
-0.064820886
-0.021618426
0.05679562
0.07156693
0.027200542
0.027195677
-0.04197152
0.049683087
0.07269112
0.055974774
0.021004401
-0.007436
-0.05001829
0.0003611669
-0.017048445
0.052479677
0.045248553
0.043991588
-0.065841354
0.020458758
0.06410793
-0.012377076
0.06546085
0.071136944
0.023463577
-0.049776513
0.008525252
-0.071704745
0.035323717
0.0007935539
-0.05302933
-0.03694492
-0.014370635
0.027385764
-0.072320536
-0.02628614
0.07068867
0.039495558
0.07526324
-0.026867446
-0.03154648
0.05075159
0.016747065
-0.029629655
0.058426477
0.06936393
-0.06442728
-0.009271689
-0.0049801245
-0.035502587
0.06101262
-0.045250352
0.030484758
-0.061952394
0.003909044
-0.055651464
-0.047285132
0.014732346
-0.016642056
-0.030708201
-0.0014209971
0.005339049
-0.07173548
0.051451482
0.021085657
-0.061556257
-0.06626657
-0.041961305
-0.009180039
-0.07089541
-0.049432535
-0.041120417
0.06411185
-0.03997
0.008276634
0.001032956
0.0050705895
0.052061863
0.030048445
-0.014516208
0.018461734
-0.005867362
-0.00469961
-0.040636692
-0.032003846
-0.05596415
-0.07498932
0.010944225
0.017469108
0.06002461
-0.04011237
-0.03294153
-0.05585983
-0.05012583
0.01344087
-0.02750969
-0.064343005
-0.026627678
0.07388071
-0.056061804
0.07420882
-0.034817614
0.027033232
0.029122718
0.06097419
0.03366556
0.06802761
0.021587223
-0.03025546
0.0036751553
-0.0006265491
-0.021753404
-0.05665671
0.05012115
-0.012443833
-0.04249233
0.061080627
0.03165508
0.004598275
-0.0134354085
0.0014813244
-0.061517112
0.040674545
0.03757926
-0.013737313
0.047922097
0.07388621
0.053758003
0.0304505
-0.06409945
0.04756763
-0.043572985
0.05065977
-0.069755584
-0.032127537
-0.039431565
-0.032280136
0.048288763
-0.04833606
-0.04761868
0.06947995
-0.04647334
-0.020074908
-0.00997825
0.006388098
0.03230883
-0.008720182
-0.040182896
-0.010230035
-0.0572226
-0.064166576
0.026390277
0.00043267757
0.067476474
-0.0186496
-0.039561227
0.030462861
-0.020367492
-0.07510265
0.049520306
0.0019210503
-0.03127418
0.07521587
-0.061525617
0.04538928
-0.05708453
-0.06443662
0.021990515
-0.011635847
0.074965425
-0.07030893
-0.029381275
0.051308937
0.02102729
0.006122403
0.033862248
0.02780497
-0.063320704
0.035071857
-0.021363053
0.031664893
0.041467912
0.05794411
-0.047801867
0.016055085
-0.022977393
0.050414793
0.058627315
0.029557802
0.05979737
-0.021118697
-0.0139037855
0.06555795
0.048660867
-0.03211177
-0.055397313
-0.039601278
-0.028125372
-0.016968045
-0.03061302
-0.05892848
0.06448103
-0.060981393
-0.050907493
0.016155325
0.045708247
-0.014743924
0.064503975
-0.07599491
-0.03349739
0.05146683
-0.003246151
0.07056012
-0.007932089
-0.014363334
0.069691144
0.07427276
0.028293267
0.05646812
-0.009734109
0.029488966
-0.06250971
-0.067238025
0.020141415
-0.07013219
-0.0018382147
0.008990094
0.074757345
0.07493714
0.03738486
0.06063596
-0.0596984
-0.009828962
-0.0706618
-0.045286693
-0.042532947
-0.02344548
-0.0660465
0.031915553
0.02500908
-0.07208208
-0.06925138
0.028751321
0.026437536
-0.0009485036
-0.042308796
0.0011696666
0.029657125
-0.06075362
-0.07465291
0.0033323243
-0.03125215
0.03836114
-0.05200346
0.060890876
-0.062819585
-0.05330293
-0.04393883
-0.04383788
0.007825218
0.0266743
0.05154676
0.04173308
0.0070968494
0.039473057
0.033928633
-0.03240621
-0.06353245
-0.02122948
-0.010122366
-0.044773124
0.0075992346
-0.03884303
0.02846039
0.037563697
-0.029194247
0.07084719
0.059448905
-0.04465772
-0.031470384
-0.015008472
-0.0126873925
0.0626344
0.069677316
0.049529158
0.0497467
-0.026563793
-0.06110561
-0.059622772
-0.06170895
-0.025516726
-0.00077616423
-0.021062568
0.022630446
0.07273077
-0.04450053
0.05359418
-0.004326336
-0.05441275
-0.0074378923
0.009819098
-0.037834615
-0.040548086
-0.002009131
-0.056182474
0.06952501
0.06329956
-0.0545831
-0.011683874
-0.0088009015
0.045515828
-0.04799463
-0.07148431
-0.06499399
-0.048534792
-0.00054136664
-0.072329134
-0.007681869
0.062380485
-0.075342014
-0.033618167
0.004888326
-0.0014793947
0.04175128
-0.020249974
-0.0030449256
-0.029736213
-0.06406233
0.030881025
-0.031320278
-0.07307242
-0.0604604
0.055420034
-0.056365512
-0.062399838
0.05291035
-0.0018938333
0.013091758
0.04800351
-0.041117433
0.012112908
0.072887935
-0.008299902
0.046734244
0.056222938
-0.06689121
-0.029587183
-0.0436824
0.046707213
-0.060600527
-0.04401473
0.042167194
0.061913036
0.06061078
-0.024834704
0.038610905
0.010740541
0.03395938
0.038749702
0.06852979
0.019886099
-0.01492187
-0.006146781
-0.06658783
0.0078573525
0.07240119
-0.07380694
-0.022317164
0.052598707
0.038084812
0.060742073
0.06384119
-0.013718158
0.009522617
-0.06275042
0.018019497
-0.03704492
-0.026842486
-0.05810403
-0.016694251
0.06610013
0.037306085
-0.06501356
-0.07045083
-0.00023335963
-0.0014687851
-0.0144828
0.016765252
-0.012615018
0.024395838
0.02059488
0.0259123
0.04602413
-0.052802943
-0.027783576
0.07112054
-0.018534794
0.021549828
0.06887602
-0.030031767
0.004283622
-0.050424766
0.04072807
0.006403938
-0.015291154
-0.00857947
-0.01958035
-0.036012694
-0.012822151
-0.018534776
-0.031140387
-0.05935289
-0.07287947
-0.00952702
-0.07520327
0.04613737
-0.021929435
0.06897601
-0.067179985
-0.013085909
0.017220415
-0.0071711615
-0.0032510161
-0.008360267
0.026352264
-0.06879296
-0.06676171
0.03951174
-0.036526166
0.06699421
0.045784414
0.069855936
0.0594481
0.028734446
-0.045624334
-0.06486578
-0.02823089
-0.037245292
0.009287193
-0.017052904
0.02911225
0.056710713
0.0018361583
0.022719651
-0.04431738
0.059869476
0.01816751
0.018021137
0.04831265
-0.04531671
-0.0728617
0.011019342
-0.019510642
-0.034139324
0.056661107
-0.012084544
0.052639805
0.011197306
0.012081936
-0.008461438
0.008791305
0.0234465
-0.04496587
0.0475728
0.022909522
0.0007054731
-0.044153858
0.008900121
0.0033790022
0.04332801
-0.018031754
-0.051322307
-0.03576482
-0.026046678
-0.011416391
0.058462806
-0.0465385
-0.062328525
0.050047137
0.0017269552
0.05151973
0.057898708
-0.03925497
-0.030280966
-0.054250993
-0.014093962
0.033573784
-0.0037448779
-0.014527097
-0.046371117
0.020788334
0.028700836
0.043532275
0.006333463
0.020166978
-0.011483863
0.06940735
-0.036555987
0.04038904
0.05782052
0.007067248
-0.010025546
-0.021785684
-0.05698824
0.03704141
-0.0150157735
0.01226294
-0.004305035
0.037056193
0.04312849
-0.05162301
-0.04485611
-0.057482343
0.02414471
0.07074279
-0.029530998
-0.06617585
-0.0017432496
-0.0350698
-0.04908355
-0.057698626
-0.049742945
0.011137575
-0.044079743
-0.030960713
-0.054574363
0.0265081
-0.072954714
-0.02289015
-0.051807433
0.02082593
-0.013759762
0.069642805
0.0740375
-0.010696135
-0.03573378
0.017727956
-0.010516956
-0.054771475
-0.043538284
0.0017454177
0.03153296
-0.042016342
0.043013744
-0.033522133
0.025203772
0.038343683
-0.025154997
0.0038294122
0.07171128
0.05476021
-0.009629644
0.049130104
0.04958213
0.0030218437
0.042939916
-0.07346499
-0.0620075
-0.023326144
0.065651275
-0.05105825
-0.00018028915
0.016187333
-0.03778777
-0.04004479
0.019011676
0.07079183
0.009571828
-0.020065825
0.0073275343
0.007144235
-0.04504814
-0.014170062
-0.030089859
0.006953843
-0.051912937
-0.046631657
0.05298973
0.013604648
-0.025337275
0.03602265
0.06816422
0.04622285
-0.004745215
-0.004004732
0.07260878
-0.04859813
-0.0418883
0.055038206
0.016500726
-0.0016365126
-0.03501118
-0.05535462
-0.045196645
0.015201926
-0.023309339
-0.04795483
0.03574986
0.069354095
-0.016179774
-0.02409444
-0.054599285
0.05679276
0.042112812
0.013082743
0.052122198
-0.012072839
0.0010808036
-0.02192605
0.037754796
0.07402807
0.019711614
-0.038543254
0.07302036
0.035361126
-0.040592052
0.027300581
-0.07531385
-0.04007428
-0.030882467
-0.039283007
-0.0076873675
0.0662987
-0.06646483
0.06961221
0.03169661
-0.014246419
0.019322924
-0.004170783
-0.057742067
-0.0036040395
0.026078284
0.031526744
-0.06616157
0.040545426
-0.07616484
0.07166789
-0.043398865
0.035591446
-0.035705253
0.06479741
-0.046040572
0.03233175
-0.001448594
0.05991914
-0.018901788
0.02084177
0.06517065
-0.015902027
0.010812253
0.008841433
0.010396525
0.041479543
-0.026557967
-0.008651741
0.02568642
-0.021484178
0.06385218
0.067496724
0.00815735
0.03857857
-0.066746436
-0.06702945
-0.07346793
-0.02645567
0.034882613
-0.038443815
-0.00274688
-0.050557613
0.055545174
-0.011868715
-0.06936713
-0.0035786778
-0.02985315
-0.015219733
0.013984762
-0.030172933
0.025688171
-0.061039798
-0.039483853
-0.0030198023
0.007818393
-0.042348396
0.03621012
0.07428021
0.020171434
0.075076975
0.020229474
-0.057925396
-0.05446369
0.064346574
0.031843893
0.026714154
-0.014704566
-0.008377984
0.050396986
-0.011682048
-0.035207435
-0.060629256
-0.07489077
0.06829647
0.007931799
0.021925777
-0.008119047
0.05418732
0.07402461
0.05372616
0.007862434
-0.03765851
0.0055220723
0.024206482
0.07280979
-0.0024032295
0.06649367
-0.008564375
0.07634916
0.02552215
-0.041612193
-0.019540261
0.006819591
0.06026823
0.047037005
-0.072694175
0.07506383
-0.068421766
0.023284815
0.06266723
-0.075471096
-0.07465339
-0.044748127
-0.026601642
0.0219379
-0.054359607
-0.047059603
0.05540993
-0.011745118
0.034045674
0.022946373
0.049201943
-0.035896886
-0.009623639
0.021819927
-0.032440986
0.009570897
0.042838275
-0.011095442
-0.00062800944
0.064823456
-0.045320734
0.05261571
0.006159365
-0.0064916536
0.010905378
-0.05791393
0.058185704
-0.066753425
0.014018029
0.0732153
0.015334025
-0.041795287
-0.036816403
-0.0650554
-0.073107354
-0.031353574
-0.004029855
-0.06653405
-0.046806905
0.0057844296
-0.0054454207
-0.061503552
-0.067709535
0.0129134655
-0.050118238
0.036123253
0.07076659
0.035796486
-0.026291326
-0.06637557
0.066082425
0.019260421
0.013025418
0.004605122
0.017382756
0.058214433
-0.016262576
-0.0461582
-0.03548968
-0.048046988
-0.045830168
-0.07156584
-0.030947786
-0.07095982
-0.06034057
-0.03566757
0.07623876
-0.055571817
0.04131802
-0.03015032
-0.0015591383
-0.055524483
0.016311385
-0.043092735
0.03057377
0.06392758
0.06694881
0.014136329
0.063186415
-0.024081934
0.0054925233
0.01627776
-0.015333757
0.055480056
0.020760864
0.034476914
-0.029700533
0.02677378
-0.031818148
-0.012017161
-0.07094582
-0.018410996
0.032933883
-0.012057528
-0.011607096
-0.06007631
-0.04709596
0.03310992
-0.06315452
0.036166295
0.015142962
-0.030737512
-0.025797043
-0.04851047
0.00015405566
-0.033441734
0.04971399
-0.052682366
-0.04650458
-0.02489473
0.0586768
-0.042380236
0.07571549
0.003255494
-0.018310502
-0.052370667
0.06742407
-0.024800714
0.041138664
0.0036206618
0.037503414
-0.024755675
-0.06819053
0.01850377
0.058667593
-0.064928085
0.04239025
0.0072308034
0.013811007
0.07568536
-0.027737316
0.07630155
0.025086857
0.028804772
-0.048077628
0.033855587
0.010669485
0.05195654
-0.003055431
0.038735017
0.028940476
0.037596576
0.019673489
-0.003063187
0.011481531
0.058442645
-0.00078658015
-0.017527472
0.018039256
-0.049304605
-0.052388344
-0.06338277
0.0023302808
0.071171485
-0.016417924
0.033195212
-0.011180319
-0.0150249675
0.02454684
0.007617168
-0.03683694
-0.028527007
-0.0472318
-0.031230843
0.0056259762
0.1393826
-0.05785971
-0.036856264
-0.10213904
0.042607564
0.066230096
0.05442965
0.066817634
0.39472747
0.08138962
-0.079666816
-0.08210717
-0.0012620836
-0.16350302
-0.13580087
0.07074694
0.04928545
0.091681875
0.08080266
0.18558642
0.47454646
-0.11250061
0.01364111
0.05770247
0.04636589
-0.11089901
0.02824755
0.060691908
0.15397647
0.068589956
-0.005508386
-0.23973818
0.016192457
0.038025677
0.026116623
-0.21080121
-0.11759518
-0.16548538
-0.016127579
-0.05553729
-0.025412232
0.07660927
0.04229749
-0.237718
0.14290346
-0.20706542
0.01689928
0.16379352
-0.057456333
0.019439632
0.0422012
0.08153779
0.15360717
-0.015155635
0.008317771
0.27719262
0.0756648
0.024598861
-0.06636489
-0.2761076
0.24198249
-0.032246284
-0.08544168
-0.32792866
0.033192363
-0.0035239826
-0.18077981
0.08587982
0.12590481
-0.108849965
-0.055269394
0.1299609
0.0036807484
0.10937141
-0.19731438
0.28273812
-0.048565272
-0.08576534
0.07838421
-0.33286357
-0.022825377
-0.27391425
0.101322256
-0.15689924
0.11476228
0.010783952
-0.10459094
-0.15730739
0.19499661
0.03696959
0.14876278
-0.15842856
0.016108487
0.18947853
0.08303301
0.14227182
-0.21063487
-0.16731398
0.92029274
0.25458395
-0.048696294
0.014580894
-0.0598725
0.13487777
-0.22050224
0.022148013
-0.26766568
-0.09150804
-0.2659331
0.23064016
0.063459
0.033214863
0.11353859
0.010195153
-0.2529175
0.072085865
-0.10044604
-0.06543713
0.27891952
0.0059012813
-0.21452072
0.06474942
-0.0122877695
0.15890865
-0.0074853236
0.06698685
-0.3065449
0.09234122
0.07331094
-0.13877586
0.15214078
-0.15202944
-0.0082132425
-0.008592265
0.020323548
0.00878144
-0.18903315
0.070071824
0.106071614
0.055093795
-0.39926544
0.106951475
-0.06211429
0.11832667
0.08022911
-0.2146328
-0.52809274
-0.11667359
-0.35863823
0.07033982
0.11619531
0.059684217
0.032525565
0.045467544
-0.14051849
-0.015351109
-0.26637736
-0.2687322
0.105182774
0.08839418
0.09109855
-0.0130526675
0.067026645
-0.18964289
-0.0022281627
-0.14299417
-0.19418566
0.11027241
-0.14214937
0.07285795
0.004167931
0.13326307
-0.03471499
-0.030153431
0.25119627
-0.060994275
0.15867296
-0.0078172
0.09274603
-0.036704008
0.10457651
-0.0029709872
-0.36361805
0.029771592
-0.0065281824
0.07442859
-0.10905481
-0.024635388
0.03706349
0.07308212
0.093931094
-0.061036535
0.09145665
-0.06704293
0.021898923
0.09402829
0.20019788
0.05421837
-0.02763942
0.012082428
0.15868896
-0.0584574
0.10958907
0.111748725
-0.3452392
-0.060893163
0.034167863
-0.08498821
-0.045976575
0.06648808
0.35861287
-0.2325758
0.03197391
0.14833051
-0.10224764
0.106560424
0.05847427
-0.06795726
0.19476177
0.052742876
-0.30429113
0.03797325
-0.08586384
0.049768876
0.015750533
-0.06923688
0.2263481
0.0147581035
-0.10237476
-0.22747923
-0.29563203
0.17604534
0.113193594
0.106110945
0.13947451
0.006759468
0.089165464
-0.006184488
-0.08591436
0.0074819853
-0.05136466
0.0013597622
-0.027217273
0.22308663
-0.014227562
0.004245719
0.24493273
-0.19549541
-0.19678338
0.07015722
0.2551803
-0.3173352
-0.14217056
0.06573376
-0.04386266
-0.06401171
0.15150759
0.03878069
0.06584194
-0.14529282
-0.14548245
-0.25466055
-0.11210639
-0.2142379
-0.44247627
0.06205014
0.027078163
0.10344577
-0.17221403
0.39900059
0.11253792
-0.10561985
0.116356954
0.1580498
0.030957432
-0.18948388
0.69446886
-0.16051395
-0.016847763
0.020713909
0.46208456
-0.038248997
-0.13476798
0.06502681
0.10332893
-0.047115516
0.06667303
-0.24930097
-0.10079354
0.15785694
-0.09938742
-0.17691605
0.11773493
-0.16301093
-0.04797684
-0.083269246
-0.0506553
-0.24525805
-0.14516214
-0.07596947
-0.09411843
0.06283473
-0.15067454
0.08992657
-0.031438116
0.09530034
-0.0016066902
0.10468384
-0.038789473
0.18374443
0.0410766
-0.78571475
-0.07643969
0.08716942
-0.038167622
-0.5002076
0.43630898
-0.08110504
0.16971032
-0.21135743
-0.037677985
-0.005580537
-0.21055472
0.09232103
0.1496044
0.06296662
-0.078422524
-0.06758337
0.076831505
0.0979906
-0.17053626
0.23841023
-1.0735661
-0.13118613
-0.006085264
-0.31174305
-0.12717223
0.06144201
-0.20072412
0.33521843
0.1114605
0.016483288
0.11793267
-0.20507538
0.168455
0.09842639
0.26126394
-0.23139822
-0.07973631
0.08193315
-0.20732863
0.06636182
-0.23649432
-0.18781321
-0.27809957
0.19903265
-0.15270321
0.20883636
-0.030075714
0.26631194
0.0033808723
-0.11990401
-0.11605546
-0.14058667
-0.3105839
0.116146006
0.069740616
0.004575072
0.113682695
-0.016540656
0.0033259883
-0.14339162
0.06040508
-0.06160225
0.24031763
0.085602134
-0.30190217
0.03785847
0.01889467
0.08041903
0.035024498
0.09366387
0.13824156
-0.115763746
0.05345556
-0.12309746
-0.009877534
-0.15185955
0.1150785
0.058500238
0.067476176
0.040375162
0.27576008
0.06934104
0.07242711
-0.0687659
0.03503855
0.14633077
-0.07315355
0.14624834
0.22973709
0.027039355
-0.26819625
0.1318355
0.02937084
0.043567296
0.08684801
-0.14188366
0.09312767
0.044929024
-0.119508915
0.07772877
-0.14446941
-0.307322
-0.07744074
-0.34401235
0.3839022
0.09385649
0.051417284
-0.046510622
-0.003398942
0.018994695
0.0064922026
0.012393634
-0.051546544
0.23257436
0.14946531
0.011178281
-0.069191486
-0.06151074
-0.103977665
0.5278447
-0.02129588
0.037470106
0.07334976
0.011121896
-0.17211457
0.003113023
-0.23018898
0.2031944
-0.09293663
0.036259335
-0.07071097
0.16031042
0.0059605874
0.04877372
0.093984604
-0.3797903
-0.15128416
-0.022939777
0.045892503
0.09569594
0.12167401
0.27667218
-0.052797392
-0.28320417
-0.054352596
0.32737717
0.016044611
0.033391837
-0.40502152
-0.033468593
-0.05483471
0.013216793
-0.0028080102
0.00023852265
-0.074994795
-0.12665673
0.043446653
0.07092266
0.052842874
-0.16419959
0.00016277538
-0.10423975
0.15610914
0.15186676
-0.33942473
0.049340345
-0.19816035
0.39733803
0.35347533
-0.018076124
0.19632375
-0.11168508
0.14119066
-0.3566693
0.23432791
-0.23222646
0.05313804
0.058712274
0.12155378
-0.24266958
-0.18608391
0.079451725
-0.05316344
-0.066010416
-0.05091312
-0.041328527
-0.046087697
0.13841528
-0.024917439
-0.07026679
0.092825346
-0.16998462
-0.18555543
-0.10149466
0.28228185
-0.5987136
0.18092765
0.15883529
0.26777938
-0.20899597
0.107158564
0.19781566
0.06669614
0.25705567
-0.1590132
-0.11785352
0.09106999
0.06397478
0.026475461
0.038120072
-0.12370171
-0.016026665
-0.09752393
0.2833008
0.13086466
0.04038734
-0.051098295
0.081358336
-0.2593562
-0.112554915
0.018513083
-0.122834295
0.028735252
0.030065896
-0.26572752
0.035506576
-0.14805433
0.04442635
0.10013882
-0.11723622
0.112608604
-0.20111646
0.120351814
-0.19742213
0.0062997374
0.029426945
-0.12196784
-0.2168861
-0.019066017
-0.071641386
0.008528662
0.09713148
-0.17389198
-0.17250396
0.15686183
-0.13464342
-0.24329118
0.07994809
-0.21915615
0.15437464
-0.025528222
0.11247079
0.24109015
0.12080035
-0.017404057
0.43338215
0.05399088
0.061487712
0.008566299
-0.06963743
0.14209025
-0.04443478
0.22580376
-0.2069918
0.038209762
0.14730263
-0.46435872
0.1137936
0.13595927
-0.0028922374
-0.01814273
0.10455599
0.108517565
0.05483464
-0.08676987
0.22648945
-0.1777382
-0.18090451
0.14524207
-0.2820092
0.011006529
-0.036457624
0.004675034
0.33800393
0.09808091
-0.0011969623
0.006296759
-0.18402019
0.2656137
-0.08507274
-0.24300921
-0.1792031
0.34844843
0.04186964
0.042387243
-0.17960761
-0.20260806
-0.3093468
-0.04351989
-0.16454376
-0.2580274
0.075280696
-0.06293004
-0.07283871
0.033417523
-0.0523688
0.051739965
0.025519427
-0.2353468
0.11876964
0.032923542
0.04238166
-0.07278794
-0.03661051
0.20097214
0.23287949
-0.085092224
-0.031193746
0.15232614
0.0927772
0.0077871685
0.021562327
0.011068224
0.11013943
0.037296135
0.09535427
-0.3016383
-0.17880389
0.03526259
-0.11297387
-0.03259129
-0.11824816
0.0997603
0.115670286
-0.20252216
0.072021894
0.047419515
0.016995126
0.078924246
-0.067833394
-0.1480278
-0.027550083
0.023829358
0.2614651
0.11535964
-0.18700458
-0.26168013
0.109031774
0.07960939
0.10918465
-0.082212634
0.19018468
0.097546116
0.0012519129
-0.11208731
-0.0114107635
0.099766046
0.2421323
0.016907094
0.3686434
0.16572922
0.060815286
0.055309493
-0.11134263
0.010849605
0.19860049
-0.18990442
0.058800742
-0.18858638
-0.010966695
0.088799655
-0.003093699
-0.1320903
-0.024401402
0.15348165
-0.39462778
-0.4164505
0.046142437
0.07412746
0.0090941265
-0.06945587
-0.010408516
-1.5509365
0.07071595
-0.023436142
-0.11635961
-0.06744128
-0.07533595
0.04360877
0.028658262
0.12376963
-0.049689952
-0.025784224
-0.060818397
0.04337394
-0.08096759
-0.12726803
0.20974423
-0.03469313
0.1344146
0.12867206
0.3124193
-0.039546814
0.04376607
-0.16594927
0.016385587
0.17683339
-0.20172516
-0.015568933
-0.09005661
0.056617286
0.04051154
-0.032966103
-0.22177391
-0.09652525
-0.22380306
0.13796645
-0.12204228
0.22305739
0.005980479
-0.29257146
0.040353313
-0.15199189
0.13356042
-0.09997093
-0.38001117
0.18346308
0.08867984
-0.13181451
0.12508188
-0.44980106
-0.043174163
0.020417275
0.07501113
0.081845306
-0.102564305
0.236566
0.084960185
-0.07596313
-0.1310679
-0.07927492
-0.03962986
0.016810158
0.1886919
-0.03288602
-0.0950537
0.22259386
-0.031994622
-0.16312745
-0.078596056
0.21893613
-0.26923946
0.049902514
0.028143194
0.014688223
0.5331856
0.1053865
0.015329796
0.33879948
-0.5720507
0.030601518
-0.040190656
-0.13578713
-0.07405121
-0.4172374
-0.195701
0.021596652
0.0851463
-0.16459008
-0.13178174
-0.10185788
-0.20874815
-0.037668567
0.2416871
0.2463177
-0.21218368
-0.04241409
-0.13030528
0.2329888
-0.23662108
0.54020286
0.21324286
-0.17508087
0.16009597
0.06404977
-0.10014534
0.123633035
-0.18309043
-0.016540365
-0.225309
0.4904518
-0.11945626
0.003009844
-0.085508175
-0.03385755
-0.021086764
0.098944366
0.01820179
-0.08073151
-0.0044162776
0.12423515
-0.11019698
-0.013540506
0.07827453
-0.8186382
-0.096357
-0.25451323
0.27880266
0.1440919
0.34847555
0.045622814
-0.5721887
-0.0019328581
-0.33409998
-0.44591707
-0.45875463
0.093910195
-0.06707082
-0.18663694
-0.16111514
-0.13257714
-0.26559788
0.1469593
0.21247151
0.21895926
0.035540048
0.025642691
-0.0023494936
0.07586048
-0.12991236
-0.051425427
0.107871525
-0.7664482
-0.21492475
-0.10702209
0.3151409
0.009125156
-0.20210502
0.105403244
-0.9045223
0.023952466
0.011922235
-0.047691338
-0.11483907
0.3874244
-0.29634732
0.06965153
-0.42419758
-0.37372306
-0.27883083
-0.0070378613
-0.33678576
-0.13620418
-0.22437179
-0.05241774
-0.04565965
-0.35503328
-0.24289925
0.015752215
0.28696832
-0.16129859
-0.034245487
0.096754804
-0.63673466
-0.32277223
0.60107934
-0.07697585
-0.04791952
0.2175505
-0.044002417
0.22419368
-0.2230789
-0.21354789
0.19880305
0.120107464
0.13956119
0.22019064
0.0131403
-0.05699776
0.045827877
-0.02177467
0.23828836
-0.3787803
-0.12355582
0.012716338
-0.0031185162
-0.035864588
-0.05359584
-0.31144005
0.018713206
0.089960024
0.30149966
-0.30557755
-0.13286577
0.08256829
-0.068777256
-0.12049489
-0.024275454
0.04159835
-0.008806369
0.081974775
0.1748847
0.24986693
-0.13659163
-0.5574963
-0.20993721
0.10138791
-0.16736634
0.15507406
-0.1161291
-0.089642584
0.081551254
-0.72935224
-0.05203071
0.051854923
0.14043716
0.060288697
0.25780076
0.024889767
0.02341648
-0.12391173
-0.099620335
-0.14105262
-0.18193966
0.23850921
-0.021534877
0.083396815
0.15461423
-0.21756667
-0.074175805
0.113514334
0.24718384
0.20275466
0.025392426
0.07881418
0.074321076
0.43988153
0.037131052
0.298953
0.3031668
0.24761191
0.03200006
0.033888698
0.10142516
0.0807359
-0.093118615
0.17910571
0.12958054
0.24896799
0.03822206
-0.19214258
0.14409207
0.11165879
-0.18705286
-0.08277415
-0.3235118
0.11124401
0.10953183
-0.26100495
0.10349587
-0.046813235
-0.11509521
-0.16796185
0.14379387
-2.8713746
0.11125716
-0.0006554426
0.20761581
0.08330202
0.2330846
0.23539992
0.076700866
0.12305868
0.0709864
0.1367475
0.06334986
-0.31160623
0.04360886
-0.23651743
-0.30904996
0.1425957
0.044397924
0.17904417
-0.038823467
-0.07613385
-0.0084987655
0.19836023
0.07563531
-0.02782725
0.08462643
0.08556846
-0.15740661
-0.41629642
-0.13901676
-0.10906582
-0.23494853
-0.006680701
-0.050804146
0.060113333
0.35203362
-0.024988273
-0.20004068
0.021041498
-0.64862365
-0.06328213
-0.123437665
0.088476665
0.18941021
0.2969828
-0.039772723
0.1097266
-0.44232228
0.11001037
0.097437024
0.3257571
0.19907105
-0.26394856
0.1905464
0.24223977
-0.2364701
-0.03811805
0.045028094
-0.20766047
-0.10083597
-0.052075285
0.19306393
0.11890181
-0.040189553
0.06869994
-0.0150498245
-0.21127398
0.053621765
0.07349413
-0.08634169
-1.6579188
0.013066374
-0.12797813
-0.049250174
-0.030401064
0.2724225
0.10722889
-0.03644128
0.04402831
-0.16227643
-0.07326376
-0.3748098
0.18582055
-0.0596853
0.08460321
0.6796414
-0.08373699
-0.24807829
0.013113905
-0.00036426968
-0.1489513
-0.1313103
0.039065678
-0.05754817
-0.113090925
-0.04656937
-0.040669266
0.0859907
-0.1235427
0.1601984
-1.3216064
0.19195116
-0.12707254
0.16334064
-0.006911563
0.10351966
-0.09421238
-0.022526816
0.082470044
0.016962772
0.039313603
-0.12947531
-1.6308885
0.23425762
-0.3051555
0.01750437
-0.03945291
-0.33390617
-0.25146842
0.04633561
0.014544936
0.20257409
-0.18227088
-0.092784636
-0.050741393
0.16982752
0.05887494
-0.2601538
-0.018157152
0.053646192
-0.31803665
-3.0342042
0.057305917
-0.012310881
-0.08201107
-0.25136355
0.19123259
-0.19411673
0.09846798
-0.31871796
0.2321179
-0.085090585
0.2103232
-2.5362213
-0.12298132
-0.12869078
-0.051175352
-0.080462195
-0.071904555
0.38159755
-0.19097462
0.010444474
-0.33117598
-0.19729814
0.14894776
-0.057534978
-0.19742583
-0.004908195
-0.006666398
-0.11663861
0.32886076
0.00096868444
0.24957685
0.10553748
0.0025817188
-0.0056338347
0.13182843
0.105614804
-0.20148645
0.027013535
-0.0042488608
0.04193343
-0.045329798
0.06693946
-0.28982675
-0.08551188
0.029713433
-0.059111856
0.04846373
-0.122863404
0.06880042
0.02739331
-0.13797905
-0.08584115
-0.2664235
0.3535963
0.121369176
-0.10429826
-0.3927778
0.05902286
-0.11366376
-0.11279282
0.06933674
-0.19879559
-0.031847283
0.5468433
0.34083113
-0.14768332
-0.029791055
0.36528504
0.12922715
0.03671544
-0.123359025
0.43403676
-0.3771623
-0.12373133
-0.38093352
-0.18479928
-0.2282251
-0.052782994
0.03570983
-0.37114182
0.06242403
-0.23848477
0.17634657
-0.04808945
-0.064172454
0.10551912
-0.43497747
-0.011043024
-0.1420449
-0.1053201
-0.09852829
-0.14739412
0.055988353
0.08688359
0.055474874
0.042566203
-0.028141247
0.06891631
-0.93181956
0.22852291
0.14731485
-0.062143154
-0.086396545
0.20335522
0.03870008
0.15064326
0.115363955
-0.3213719
-0.55091876
-0.08483681
0.4023377
0.001980344
-0.094841324
0.06457082
-0.19013694
0.14203621
-0.20107014
-0.21625781
0.31213275
0.22959535
-0.06530818
-0.039780166
0.065404594
-0.026826553
-0.008917478
0.43608892
-0.76073277
-0.058804203
-0.14455707
0.22713885
-0.463106
-0.20638396
0.19884367
0.2852735
0.33408558
-0.45636773
-0.2537042
0.045086533
-0.20628855
0.24298279
0.007337991
-0.33079267
0.16938792
-0.04703479
-0.00021757431
-0.5280285
-0.039018188
0.003590126
-0.010403245
0.11170577
0.057342973
-0.41756812
-0.46436235
0.17956598
-0.07137653
-0.5116497
-0.09024045
-0.13316457
-0.070548564
0.12559237
-0.0011445304
-0.21363318
-0.09384526
-0.247363
0.036728725
0.57478714
0.10288283
0.14600159
0.13159926
-0.16387348
-0.24555688
-0.19830367
0.12955819
-0.044339217
0.2583451
-0.14943962
0.017468747
-0.0084481845
0.14889619
0.03629263
-0.40886736
0.027585
-0.113051325
-0.007628303
-0.20061499
0.047751766
0.2579703
-0.08796184
0.06982941
0.25832173
-0.20637308
-0.42534032
0.071665
-0.13791054
-0.092317976
-0.031616047
0.039015878
0.029197121
-0.29139733
0.3195632
0.0756357
-0.14979035
0.14677168
-0.22496656
-0.038151067
0.28981188
0.114135355
-0.08984519
-0.422112
0.110940576
-0.12322089
-0.27665314
0.079258956
0.27626348
-0.00083527586
-0.18605894
-0.024484776
-0.05088454
-0.33898553
-0.038786236
-0.52990425
-0.14112498
-7.919138e-05
0.4066922
0.07726064
-0.13761324
0.07491326
-0.25875637
0.05955914
-0.06943561
-0.015111069
-0.13715675
-0.08312818
-0.044277664
-0.0084185805
-0.12542996
0.06957177
0.10253373
0.23263182
0.21208075
0.4356258
-0.12970325
0.077138506
-0.021075511
0.024567768
0.15342885
-0.29296893
-0.16321374
-0.22105215
-0.3305204
-0.17691109
0.049532067
-0.050866123
-0.259528
0.08151437
-0.07113648
0.07779535
0.077059075
0.026703628
-0.26783296
0.33454505
-0.046485685
0.09688973
-0.28711906
-0.062860385
-0.008116822
-0.11286142
-0.007933288
-0.16837004
-0.03458466
-0.058621414
0.16226615
-0.0088727465
0.031032603
-0.30717918
0.2633229
0.15612729
-0.33574775
0.13283426
-0.20249332
-0.102149144
0.39388385
-0.16457558
0.022802504
0.021241188
0.18177408
0.139889
0.21535112
-0.024820926
-0.09679943
0.19137996
-0.09547392
-0.20171972
-0.009465607
0.01897191
0.07163209
0.06352276
0.40828994
-0.21332002
-0.19841915
0.029149065
-0.16459128
-0.03390623
-0.072988026
0.10285975
0.065587975
-0.032047704
-0.031060604
-0.32000312
0.20378572
0.11612257
0.06994339
-0.22799699
-0.055151884
-0.09720194
0.07147908
-0.040311776
0.0030091817
-0.23733419
0.15788095
-0.3895541
-0.024434052
-0.02638202
-0.118473165
0.09158289
-0.17413945
-0.1660123
0.11533797
-0.24630012
-0.022417232
-0.14648385
-0.03354766
0.0113872485
-0.37352172
0.036046218
0.2086401
-1.7686534
0.057870243
0.020810405
0.04856702
0.017526163
-0.0107909655
-0.25451282
0.031927254
-0.06422524
-0.04093679
-0.24419075
-0.282528
-0.024887733
0.09345789
0.10765572
0.09787936
-0.3755876
0.0008211285
-0.24171437
0.16493712
-0.04036149
-0.12412622
-0.01734299
0.06776724
0.01824935
-2.6228662
0.09536011
-0.07802182
0.30074582
-0.047277275
0.68085617
0.015998773
0.040272076
0.075249605
-0.0990805
-0.2588899
-0.066133566
-0.10992167
0.3870849
-0.03832078
-0.049455326
-0.12804441
-0.008034095
0.25882614
0.046872064
0.27762017
0.22803402
0.09918241
0.048776
0.21410643
0.21969399
-0.11744316
-0.0018870473
0.028916325
0.286174
-0.040742345
-0.2681158
0.06007207
-0.1436845
0.24295141
-0.08343267
-0.1321548
0.18507755
-0.0698187
-0.1813543
-0.13083136
-0.50768137
-0.009510294
-0.0038831513
0.07478992
0.078243636
0.12710609
-0.0012537404
0.44282386
-0.088213906
-0.31782565
-0.11729832
-0.18354923
-0.0072416356
0.1505463
-0.014059644
-0.26253822
0.0155263245
0.019956673
-0.016759636
-0.151032
0.01774504
0.14599839
0.16996194
-0.037486162
-0.19031385
-0.07584878
0.14355005
-0.35849458
-0.019861361
-0.1153775
-0.292524
0.43115804
-0.17030483
-0.071569
0.07520318
0.13251226
-0.25000656
0.16112185
0.13838631
-0.060632076
-0.4740121
-0.11452552
-0.030622132
0.104953974
-0.10665297
0.0052378303
-0.084317125
-0.14415652
-0.013886788
0.10875346
-0.11615005
0.10902558
-0.16434851
-0.30360663
0.053583097
-0.033917964
0.0427827
-0.2457092
0.21835667
0.031262357
0.038272057
-0.1254404
-0.053044092
0.84088343
-0.14350894
-0.47556597
0.051486127
-0.18559815
-0.16190967
-0.24147464
0.34490177
-0.043875948
-0.25803095
-0.49356997
-0.037750203
0.10408591
0.024380583
-0.02707072
0.40980527
0.004653909
-0.00698322
-0.11154685
-0.052837614
0.34318206
-0.09889493
-0.28729078
-0.26970547
0.12061256
0.21134268
-0.09517652
-0.05864059
-0.04855892
-0.45368162
-0.7393637
0.23402263
-0.20979343
-0.028685477
0.23777364
-0.08215958
0.14829087
-0.1969414
0.14016998
-0.1289416
-0.08005189
0.068862446
0.101872355
0.038712148
-0.25705484
-0.047486447
0.15017955
0.1014625
0.17992081
0.043665767
-0.25082874
0.3868667
0.019627
0.2557864
-0.04084673
0.036062393
0.021969602
-0.18496826
0.2795187
-0.18411452
-0.023176763
0.02308637
-0.26997182
0.13387409
0.1905672
-0.14568955
0.19424926
-0.36278257
0.08814739
0.030035894
-0.107851095
-0.07956253
-0.015832895
-0.032850094
0.08696731
0.07116924
0.22348961
0.12663059
0.13778535
0.030469038
0.33012867
0.21566206
-0.24927999
0.061532784
0.019059937
0.01584273
0.12703712
0.027490698
0.26480955
-0.3082053
0.071016066
0.02178233
-0.15631182
0.09521997
-0.13238278
0.10214819
-0.21337932
-0.078009434
0.4884179
-0.175556
0.08157823
0.1450945
0.018976994
-0.47673047
-0.033317633
-0.035603344
0.028145038
0.043528017
-0.3466142
0.14614685
0.345437
0.08231109
0.0179802
-0.04373679
-0.03887269
0.11429489
-0.035344373
-0.16776331
0.20531942
-0.24600269
-0.092917256
-0.1922125
0.22073911
-0.024572827
-0.19405612
0.055095993
0.10986449
0.02195553
-0.065190986
0.21221289
-0.037438195
0.10374152
-0.065778606
-0.5303967
-0.13025214
-0.040732007
-0.10605277
0.2089645
-0.16903128
0.24398483
-0.0048534577
0.049602337
0.19525288
0.00017856722
0.004587025
-0.23662078
0.4108465
0.13749772
0.5956807
-0.082801804
0.354423
0.019763522
-0.033971377
0.07274649
-0.15849844
-0.8316361
-0.1333513
0.41943544
0.11193558
0.7100367
0.028987715
-0.2294033
-0.067636125
-0.07903105
0.08132463
0.6298712
-0.112948164
-0.05675431
-0.011837338
-0.051811058
0.72032887
-0.030262487
0.23043509
-0.6780138
-0.12033455
-0.0130459005
-0.24121475
0.10472167
-0.3182574
0.06523962
0.21865828
0.26819113
-0.10147549
-0.27009544
0.06819726
0.010426333
0.2153841
0.18359601
-0.35346946
0.23520099
0.31178117
0.029447773
-0.8189362
-0.022534432
-0.26297724
-0.015107306
0.09695417
0.10950678
-0.20025021
-0.29777235
0.10446393
-0.07098101
-0.16194665
-0.17967765
-0.7017287
0.031734765
0.109299935
-0.009488732
-0.2996598
0.09583996
-0.34880868
0.0051238374
-0.1739773
-0.06735392
0.11145037
0.37577268
-0.17674935
-0.1477477
-0.0021966887
0.124159686
0.0028584327
0.19907668
0.06559685
-0.010154762
0.3503054
0.14576107
0.008325598
0.15309936
0.05659699
-0.16986844
0.18275134
-0.073205695
-0.19975838
-0.20372029
0.09934018
0.05417526
0.1130393
0.2985491
-0.34409207
0.09068239
-0.117034
-0.003492803
-0.09922971
-0.060855202
0.2167917
-0.23982486
-0.8502506
0.08421189
0.032571457
0.09356981
-0.25375372
0.0004317364
0.13049509
0.009837466
-0.040529102
-0.17841585
0.22447808
-0.13444984
-0.21102135
0.04738148
-0.25578454
-0.08340876
-0.34827366
-0.0051741977
-0.04509468
-0.09825286
-0.0063005285
-0.13957506
-0.1536607
-0.010014246
-0.29211938
-0.18016188
0.059663184
0.08364749
-0.04975994
0.10470598
0.20672609
-0.11291033
-0.1974765
-0.05725652
0.034189932
-0.12096245
-0.08097067
-0.09632004
0.26850647
0.4131827
0.4202751
-0.07704923
-0.12580916
0.008335512
-0.34884056
0.041090503
0.12829985
0.07103729
0.28879344
-0.11985056
-0.16920021
0.06716884
0.3640477
0.1355371
-0.4284636
0.23359528
0.022337394
0.086463936
0.26708475
-0.18511951
-0.14623411
-0.033279113
-0.09466438
0.10478159
0.024934066
-0.13735026
-0.036694065
0.16174705
0.22363979
-0.18937697
0.010550759
-0.020089263
0.07401022
0.16121003
0.011645695
-0.38013443
-0.22586246
0.09701636
0.15640478
-0.032441292
0.06553598
0.020380262
0.15445407
0.031118153
0.10956147
0.04267903
0.22621949
0.18833394
0.04670397
0.038388703
0.07917291
0.23797019
-0.23324421
-0.106911756
0.025534922
0.05234859
0.17601083
0.09365233
0.12923574
0.042082787
-0.014601112
-0.1382687
-0.15472531
-0.16381034
-0.07475041
-0.22844467
0.042744827
0.0789212
0.19444667
0.28792495
0.032894786
0.16065784
-0.025271991
-0.16662672
0.022789009
-0.10418426
0.07700226
0.038450222
-0.10400698
-0.19155587
0.09083954
0.049899057
0.04443255
-0.016163716
0.30713922
0.11910246
-0.055868194
-0.16823149
-0.048703987
-0.32309064
0.12007116
-0.11213143
0.07434569
-0.020364586
-0.3772788
0.061967086
0.15988013
0.074762955
0.13345267
-0.120114125
-0.13753551
0.05895292
0.12853839
-0.066106774
0.15759712
-0.1189658
-2.084042
0.0718457
0.09863578
-0.0979252
-0.12870526
0.025530504
0.14671537
-0.23630366
0.020430522
-0.19662853
0.100260496
-0.013551738
0.24873781
-0.13055585
0.07301208
0.02199916
-0.33353418
0.0606264
-0.11281938
0.033865634
-0.052646864
0.06339827
-0.04919662
-0.19534393
-0.080252826
-0.04496881
0.14934625
0.2482842
0.19311021
0.037815724
-0.079338536
-0.07550148
-0.23779793
0.23520377
0.042919546
-0.092011176
0.21794054
-0.16702232
-0.20792355
-0.052869774
0.0611545
-0.024991902
0.14926003
-0.02100739
-0.038755275
0.0645028
-0.10936172
-0.27791035
0.04152392
0.027642148
-0.009912834
0.122432455
-0.2362971
0.24784446
-0.088706054
-0.002523288
-0.13281533
-0.02973231
0.23639968
0.04647409
0.09732463
0.108381756
-0.015699664
-0.06082321
0.45884946
-0.09184883
-0.047390018
-0.11386283
-0.39683062
-0.00091162056
0.16603397
-0.0084358975
-0.20026748
0.033764273
0.24271658
-0.048453007
-0.024275739
-0.04476213
0.05591194
-0.05369875
0.023008673
-0.18291809
0.066193216
0.16753037
0.14831042
-0.036002375
-0.17140621
-0.10048321
0.07415791
0.08625452
0.07645604
0.2583709
0.050283063
0.04390908
-0.00028258425
-0.051025126
-0.14436612
0.04975936
-0.022622969
0.02038933
0.06794596
0.24997084
0.10001693
0.03524383
-0.119447775
0.07179975
0.041043147
-0.0892542
-0.083398916
-0.0031976597
0.091072515
0.1544249
0.17293742
0.00882455
-0.19596916
-0.0020017922
-0.0022875383
-0.0041404534
-0.14182183
-0.051260356
-0.16794309
-8.7636065e-05
-0.044737473
-0.008656254
-0.0072213076
0.04636013
-0.13355912
0.03053646
-0.17890128
0.35567835
0.1539772
-0.029334143
-0.0064358474
0.01976735
0.18826312
0.19731753
0.13328628
0.002802626
0.10203328
0.14747985
-0.039588407
-0.018174963
-0.26093394
0.19937934
0.005484005
-0.05583308
-0.22876738
0.07383715
0.049669426
-0.1488808
0.12895146
0.05354505
-0.085727654
-0.07621646
0.09583988
0.008747074
0.10520773
-0.18159688
0.21300346
-0.011541965
0.07754238
0.08957454
-0.22626531
-0.10979755
-0.1274523
-0.018139357
-0.0551236
0.10571846
0.02370661
-0.013744497
-0.14989902
0.013909507
0.0029909697
0.14466761
-0.15938684
-0.05705858
0.14277221
-0.0032706135
0.14497568
-0.22574441
-0.14243308
0.7363442
0.15225513
-0.10789272
0.13694093
-0.12430031
0.08259944
-0.37508073
-0.022131408
-0.101575814
-0.11833949
-0.2603583
-0.004067132
0.0937402
0.07044633
0.06313814
0.0063196905
-0.2276155
0.062420864
-0.113258936
-0.20108396
0.2569501
0.040905233
-0.17981863
0.07821607
0.0014715671
0.1601605
-0.018105047
0.09044632
-0.90687305
0.018943327
0.08345275
-0.0638549
0.06361709
-0.157545
0.12097147
0.10352375
0.0163448
-0.09491181
0.16182396
0.1254679
0.09784608
0.006996012
-0.30919772
0.12493006
-0.16771148
0.20641468
0.16108167
0.3284561
-0.47300822
-0.09582764
-0.65929645
0.075785615
0.09388896
0.041314278
0.04796713
0.1665141
-0.12209719
0.009774083
-0.15236834
-0.21787308
0.016736057
-0.15915152
0.032485005
0.013107501
0.047784764
-0.10749021
0.028942253
-0.01416971
-0.15450948
0.2139131
-0.11026923
0.08148217
-0.042954057
0.10485972
-0.07912075
-0.040254258
0.16145842
-0.18184634
0.39655334
0.012235233
0.08147381
-0.008493361
0.071872346
0.027189974
-0.1631127
0.11925079
0.047245402
0.0811451
-0.124690056
0.031128284
0.025448998
0.10131483
0.10855386
-0.056424897
0.083801895
-0.06289788
-0.009519406
0.09114126
0.20006575
0.38647217
-0.034280837
-0.12818381
0.08776713
0.028555598
0.07459743
0.049948927
-0.3449149
0.11017335
-0.002090935
-0.06140647
-0.009946652
0.13437024
0.2855726
-0.2520945
0.070819005
0.009377781
-0.089678094
0.06196126
0.09812488
-0.025913883
0.2276009
0.07507425
-0.25814798
0.05634316
-0.106447615
0.1641525
-0.024918275
-0.059164453
0.2122386
0.2003373
-0.11440263
-0.389423
-0.18102327
0.112629205
0.1119785
0.09820582
0.13277996
0.14570709
0.10849622
0.05126083
-0.08189986
-0.018603813
-0.056077424
0.02053293
0.04516062
0.1844454
-0.02579357
0.0071790973
0.3406766
0.06813347
-0.23024932
-0.005583155
0.2734122
-0.26204342
-0.13618618
0.06338115
0.06370393
-0.07328961
0.18069904
-0.018278932
0.08786057
-0.25573167
-0.09642784
-0.12042457
0.21869542
-0.11939077
-0.03002531
0.02816608
0.026924713
0.00059919304
-0.021973941
-0.20644823
-0.2734315
-0.15566961
0.057531454
0.12138524
-0.062560156
-0.09260687
0.276376
-0.16379522
-0.0054243286
0.106769025
0.08244392
-0.06078235
-0.081707045
0.078001335
0.12711471
-0.056090478
0.060161203
-0.18407905
0.016247256
0.25332847
-0.10580432
-0.0508243
0.40793997
-0.09488828
-0.045669455
-0.0697695
0.0203114
0.038427893
-0.09428138
-0.33398676
-0.018351149
0.07533771
-0.5588206
0.11187857
0.025164327
0.14210024
0.008860541
0.15594092
0.1271421
0.041651554
0.053179976
-0.60711455
0.11870372
0.06991239
-0.06800636
0.0004263566
0.3041986
-0.00029921636
0.06943228
-0.18379813
-0.016057381
-0.24198516
0.022615502
0.09292159
0.14620146
0.009520767
-0.091111355
-0.1367891
0.06726018
0.0681274
-0.18989934
0.09510963
-0.13100983
-0.09091186
-0.08599329
-0.29227078
0.09849054
0.16530448
0.21936843
0.19496357
0.11459716
0.022755703
-0.047273666
-0.15687363
0.26038215
0.04319589
0.34265086
-0.17753609
-0.10328491
0.10786514
-0.10685803
0.021614308
-0.20683993
-0.17621681
-0.18297397
0.18870297
-0.12954295
0.2678553
-0.14641453
-0.23438047
0.13304904
-0.11667782
-0.050664905
-0.024985146
-0.24340142
0.23685496
0.068817
-0.018412514
0.043603458
0.028037995
-0.09255114
0.26206413
-0.007787267
-0.26939124
0.23245727
0.12319047
-0.15506504
0.052166454
-0.027549196
0.04600363
0.021671321
0.11806164
0.0971739
-0.07114394
0.077714615
-0.110514514
0.14345868
-0.11350344
0.13739084
0.16890344
0.012533392
0.058922634
-0.15942165
0.12833083
0.08074317
-0.0416431
0.13766314
0.25011912
-0.112132974
0.013202398
0.23317549
-0.3352159
-0.34125626
0.103461504
-0.008038638
0.026068484
0.22316311
-0.42638794
0.037738502
0.0942647
-0.13595708
-0.03421704
-0.3002391
-0.72611284
0.17267552
0.60897434
0.28745618
-0.041641735
0.044192463
0.05840994
-0.037586976
0.16876489
-0.30989414
-0.21276149
-0.102034114
0.061407592
0.11362034
0.0791153
-0.2050085
-0.030682951
0.0110023245
0.41953456
0.13723595
0.009803785
0.104966015
-0.0030454122
0.10038683
-0.024583869
-0.31985497
0.051144246
-0.059341855
-0.008450472
-0.048039075
0.025747893
0.019246923
0.06229121
0.0868067
-0.61274314
-0.18790603
-0.022947954
-0.033677854
0.13102691
0.09692035
0.038336933
-0.06672519
0.18294896
-0.2271215
0.1502203
0.004753018
-0.04456856
-0.29122517
-0.036474217
-0.45502526
-0.09932149
0.04347396
-0.093940325
-0.259166
-0.026029889
-0.1482666
-0.057097226
0.12132827
-0.21424215
0.20139667
0.0778344
0.12993428
0.26329327
-0.24148259
0.070036575
-0.13659811
-0.028370695
0.09051957
0.16746213
0.18647806
-0.08241033
0.079504095
0.12557913
-0.04458568
-0.1326974
0.052678693
0.10169183
0.12797177
0.338841
0.005824542
0.12233215
-0.08132905
-0.060085494
-0.055949252
-0.0078646
0.056710474
0.15187256
-0.033294763
-0.097256005
-0.058736645
0.01309447
-0.18848924
-0.09363202
0.2557887
-0.46753436
-0.005332831
0.092100956
0.2185179
-1.9703958
0.12409708
0.3268223
0.11590584
0.01738808
-0.09862947
-0.0043094256
0.08833549
0.07816581
-0.3340222
0.085958846
-0.03539146
0.13360482
-0.124373846
0.16936496
-0.009715378
0.14929035
0.13969414
0.052952565
0.033575248
-0.084540434
0.18509312
-0.123884715
0.094426155
0.009864627
-0.3839838
-0.0028236557
-0.11404424
0.08601329
0.120382324
-0.08799202
0.0885485
-0.17123552
0.004945385
0.33394012
0.1643574
-0.10017414
-0.20389263
-0.14470087
-0.054841798
-0.0828901
-0.010575658
-0.057626422
-0.022835126
-0.056902494
-0.10338365
-0.0897213
0.11155959
0.061661784
-0.020694261
0.022693163
-0.015460097
0.13598849
0.0016706048
0.21848895
-0.14239728
0.1261729
-0.036856074
0.2890731
0.17139934
-0.004473836
0.06776188
0.0027138442
0.07905773
-0.10670633
0.025189767
0.0069973194
-0.2092547
0.13469608
0.05918673
-0.016865248
-0.011565654
0.052828223
0.09176569
0.037027344
-0.06780752
0.08761951
-0.060212247
0.04158602
0.104592815
-0.2168922
-0.052572507
-0.12883095
0.13752474
0.44983605
0.09593703
-0.01611675
0.21249023
-0.17160298
0.1402209
0.19384333
-0.04866881
-0.12122313
0.08651161
0.036816612
-0.32907987
-0.07363919
-0.17758556
-0.16211091
-0.2844403
-0.31209987
-0.26147485
0.27165326
-0.18201998
-0.11632854
0.15562907
-0.10906507
-0.005463329
0.3315907
-0.1943179
0.110264175
0.060939506
0.060414393
-0.1605936
-0.03924131
-0.06432843
-0.1554923
-0.09595697
-0.052261557
0.18645939
0.07013053
-0.12197966
0.015500604
0.0035958458
0.10112783
0.044861145
0.008161363
-0.60003346
-0.091843404
0.07753602
-0.093120314
0.08196343
-0.17111741
0.09871348
0.18022841
-0.13786824
0.12037367
-0.10908628
1.2921332
0.07880933
-0.11858941
-0.04480609
0.11028953
-0.009145104
0.19998966
0.18745087
-0.10004707
-0.21532333
0.0045497776
-0.110184856
-0.068521924
-0.10709789
0.319093
0.08262052
0.027404273
-0.1285866
0.07679049
-0.11768803
0.15608878
-0.2567216
-0.26557043
0.26683536
0.13958196
0.037183367
-0.06712335
0.05335388
0.3159158
-0.018249346
-0.08520415
-0.07427262
-0.02964208
0.09372258
0.11511191
-0.13574181
-0.012779024
-0.22189249
-0.51558614
-0.3327468
0.032535363
0.081773385
0.028109616
0.0970638
-0.03513532
-0.05418136
0.14936149
-0.008487533
-0.0865899
-0.0749029
0.22331363
-0.0075801825
0.00064879586
0.07788594
-0.0123052215
0.045944348
-0.12182751
0.12073827
-0.18603039
-0.019185055
-4.0919805
-0.0051576556
-0.2051438
0.21762915
-0.0013715277
-0.01720089
-0.00668766
-0.2052091
0.13293189
0.10361549
0.015734252
-0.06276746
0.09500044
0.03325804
-0.37677985
0.024745153
-0.35742247
-0.078855544
-0.23111895
0.023632238
-0.080935016
0.31653312
0.10093653
-0.22719082
0.048797686
-0.19408616
0.27289847
0.074487984
-0.47837293
0.16792774
0.4185371
-0.10969445
-0.3348199
-0.44676057
0.050646104
0.07612529
0.07352087
0.08406155
0.068352595
0.21001847
-0.03649937
-0.053778365
-0.050285194
-0.059277203
-0.035883177
0.09202452
0.16161814
-0.0408557
-0.12888427
0.3036666
-0.01768247
-0.18094906
-0.0077527375
0.1809686
-0.17310186
0.30804557
0.013467648
0.09598293
0.4584146
0.12291042
-0.030486511
0.15195781
-0.60081136
0.0039586485
0.06358299
0.15195662
0.062247306
-0.045219995
-0.12118452
-0.031333584
-0.04968258
-0.13977696
0.23256785
-0.14476499
-0.23153724
-0.08615368
0.24235274
0.032520037
-0.4964793
0.026614074
-0.14516032
-0.020965675
-0.024548773
-0.0785825
0.043307025
-0.168323
0.13090682
0.108048506
-0.21575847
-0.06508262
-0.16745804
-0.13567026
-1.6510779
0.14590792
-0.03321183
-0.02652274
0.024896545
-0.077598885
-0.096047655
0.056467243
-0.028378898
-0.08897284
-0.19389787
-0.044179182
-0.06683868
-0.20260133
0.07354602
-0.015137988
0.21292812
-0.060677588
0.19998233
-0.13184273
0.037981723
0.20279759
-0.2051503
0.070693634
0.58077216
-0.4172601
-0.28623882
0.19487715
-0.04005879
-0.21325208
-0.10791652
0.04856169
-0.26190847
0.14499858
0.02871579
0.37233806
0.1077083
-0.05117669
-0.022645257
0.1198414
0.05316191
-0.06266074
0.09598043
-0.0077478373
-0.06304498
0.016916605
0.1263111
0.0782133
-0.2724187
0.020605223
-0.14434141
0.07888918
0.005882477
0.07032797
-0.18121779
0.28407887
-0.13045773
0.23979838
-0.20006101
-0.25745645
-0.49589375
0.45793706
-0.3184079
-0.13221583
-0.22400594
-0.119137794
-0.14270784
-0.31433317
0.47461617
-0.32448238
-0.06558662
-0.033955023
-0.13085741
0.23958297
0.10904632
-0.27689967
0.31108642
-0.1241121
-0.021794159
0.15883109
-0.010590376
0.3382404
0.52517337
-0.18449548
0.008627571
0.17660205
0.04937521
0.01031584
0.008014762
0.017436007
0.12269817
0.0459122
0.35818386
-0.0994305
-0.12563948
0.0441834
-0.16860467
-0.2740909
-0.05617216
-0.018990278
0.08993279
0.18290529
0.029145863
-0.18801668
-0.41442084
0.09434642
-0.062471475
-0.19325538
-0.08412089
0.012592859
0.29430896
0.11155589
0.08712979
0.029905712
0.54111046
-0.61378795
-0.34084213
-0.10428681
-0.19820572
0.10171095
-0.080821946
-0.1587756
0.19474253
-1.0346605
-0.16710536
0.026292041
0.09597784
0.06558593
0.08700912
0.021490052
-0.07951994
0.050085396
-0.22143407
-0.1502332
-0.22475353
-0.109588146
-0.012893861
-0.111882366
0.02835914
-0.3038364
-0.026800979
-0.13136639
0.02832178
0.3235793
-0.0018480476
0.091237746
0.004931696
0.32131428
0.060978808
-0.27688387
0.3791989
0.14031841
-0.14660937
0.04084754
0.13514271
0.0044778883
0.010801025
0.14837089
-0.41212064
-0.16627373
-0.056096323
0.010940683
0.09409912
-0.043146882
-0.6185027
-0.017591832
0.011546987
-0.25347325
0.3697395
0.05652922
0.15505666
-0.071877785
-0.11762634
0.09846795
0.035671674
-3.1474519
0.20544556
-0.26116315
0.102473944
-0.07756724
0.008795362
1.7710863
0.08928548
0.21451525
0.18396732
0.18407054
-0.03215336
-0.23650631
0.049449828
-0.20785834
0.26085785
0.15353245
-0.054767754
0.16284393
-0.16637328
-0.031873383
0.12850748
0.15795363
0.1004967
0.011785236
0.084737
0.0760939
0.15836954
-0.34544832
0.119182676
-0.07917968
-0.133921
-0.042080678
-0.054462124
0.048524965
0.20870467
-0.028906897
-0.15110587
-0.5691525
-0.2806246
-0.10453224
0.023235152
0.10392974
0.07633165
0.016111003
-0.10549494
-0.108972855
-2.1569061
0.12003385
0.04145343
0.1716152
0.11244535
-0.0149965435
-0.020105533
0.13197413
-0.23410968
-0.13275898
0.08258511
-0.1131597
0.18796304
-0.12025399
0.17345674
0.09413536
0.19300008
0.05318078
-0.03742281
-0.06765411
-0.16427894
0.010332033
-0.11062222
-1.8856318
0.077103116
-0.07453519
-0.04938795
-0.21913536
0.15783799
0.058845907
-0.11226857
0.17159507
-0.18996732
-0.08186641
0.46290275
0.38540673
-0.249302
0.07935497
-0.10152102
-0.09082149
-0.14253214
0.006159216
-0.19877234
0.13457982
-0.23910826
0.048329096
-0.017420508
-0.042892165
-0.0074712434
-0.2100763
-0.08874275
-0.05169767
0.2445819
0.51209563
0.24817108
-0.09755898
-0.04087108
-0.13530387
-0.6576228
0.2507718
-0.17047018
0.13169175
0.095154256
-0.08571071
-0.09976312
-2.946998
0.18663613
-0.3391945
-0.17327107
0.445721
-0.17627074
-0.27340385
0.18742396
0.04668612
-0.07279155
-0.104573555
0.10506766
-0.0032344114
0.17200531
0.2067641
-0.27383804
0.020309139
-0.39422116
0.14957614
-5.3262
0.094676204
-0.059267722
0.17166576
-0.20376003
-0.029395767
-0.0029673784
0.18254963
-0.26579556
0.13620248
-0.060538113
-0.29178467
-2.2806885
-0.16378108
-0.10042358
-0.0046462677
-0.08659221
-0.24643292
-0.004957737
-0.2826935
0.05497376
-0.25321314
-0.2543108
-0.01292124
0.30476475
-0.18153553
0.39947745
0.057773177
0.0072942115
0.017271722
-0.047619212
0.26756233
0.033018574
-0.0024629736
-0.25250924
0.18484315
-0.03599301
-0.38543636
-0.0073257643
-0.024548775
0.07294763
0.041705716
0.15674536
-0.2594003
-0.046753384
0.05984437
-0.11185299
-0.112128235
-0.14647682
-0.019739825
0.08140525
-0.2237337
0.35375106
-0.17349468
1.2063947
0.10432237
-0.028361274
0.062009722
-0.11201782
-0.042317495
0.10615233
0.15514925
-0.04154336
-0.08297165
0.457551
0.13464993
-0.23021992
0.07715791
0.2663247
0.10582548
0.07982877
-0.13482423
0.4545175
-0.35570925
0.079943955
-0.26153743
-0.047831833
0.169934
0.15158659
0.03445747
-0.085394055
-0.02168059
0.1032451
-0.39059138
-0.07147865
0.06169352
-0.030645479
-0.1606794
0.031595286
-0.15067458
-0.034832932
-0.09515211
-0.052694708
-0.0038044984
0.07950745
0.107998386
0.050546646
-0.0711021
0.011754092
0.03875924
0.20619914
0.10576087
-0.12614582
-0.06642994
-0.07008806
0.023498485
-0.00497754
0.122486115
-0.30590448
-0.45835072
-0.2022649
0.19614814
-0.020267522
-0.24819396
0.3256706
-0.081361
-0.12557277
0.025742793
-0.036407854
0.22309113
0.0066200737
-0.05514641
-0.011836205
-0.015036352
0.17512934
-0.09147052
0.19395062
-0.07646748
-0.08708699
-0.06451685
0.12421996
-0.5978069
-0.055179466
-0.066390105
-0.15487139
0.21352857
-0.4680989
-0.22101529
0.048879273
-0.22509867
0.45296013
0.09297994
-0.36106315
0.1661478
0.1806057
-0.031956993
-0.073280446
-0.07985233
-0.041153934
0.0335821
0.037101984
0.07745416
-0.099633835
-0.06342548
0.035241466
-0.05494086
-0.1138844
-0.066005275
-0.06960645
0.118939094
0.21168546
-0.03192808
-0.21001723
-0.14977312
-0.08558994
-0.013071808
0.061020236
0.116783634
0.1060224
-0.050423607
-0.31126025
0.08866896
-0.13722874
0.14995532
-0.07713858
-0.08609251
-0.6222934
-0.2819603
-0.019065525
0.3912739
0.030239323
-0.31627154
0.051452033
-0.13342984
0.100097276
-0.20551261
0.2135536
0.30614918
-0.14695293
0.1034521
0.27352038
0.28035185
-0.3673441
0.10915831
-0.122647375
-0.06836319
-0.040667105
-0.017757539
0.06873293
-0.22841814
0.15195087
0.06590685
-0.12612352
-0.097655945
-0.19509605
-0.28213358
0.109062254
0.032918587
-0.22070125
-0.5796617
0.23575857
-0.10162628
-0.18886535
0.16260847
0.07828444
-0.14702392
-0.14221574
0.36249882
0.08421924
-0.21778025
0.047122724
-0.185802
0.2168007
-0.04343272
0.15275678
0.18189533
-0.10785004
0.13877589
0.02360792
0.28174558
0.6140222
-0.1552394
-0.10827674
-0.027937895
-0.030368762
-0.0028236106
-0.15103531
0.07729747
-0.28054956
0.23209238
-0.10869818
0.6491697
-0.10482709
0.034212075
-0.07504233
0.047236294
0.16842154
-0.2509059
-0.11124098
-0.16318822
-0.347368
-0.13186681
-0.10590858
0.11392681
0.36925286
-0.010500346
-0.04043252
0.06812849
-0.07598421
0.09360611
-0.20830177
0.50944996
-0.29672
0.20707294
-0.13284956
0.08353295
-0.013059866
0.09877011
-0.0665389
-0.14522491
-0.034863643
0.09800369
-0.100051396
-0.09580948
0.59529597
-0.304428
0.35782668
0.050837394
-0.25404498
0.07669018
-0.21519125
-0.13615577
-0.011162994
-0.11392857
-0.03262989
0.06640514
0.06949231
0.146543
0.36163792
-0.004621848
-0.23565018
0.17784506
-0.027611934
-0.31536496
0.020346541
-0.014654631
-0.013238547
0.034152765
-2.1628044
-0.18125229
0.044189874
0.016404998
-0.080617726
0.18239969
-0.07462131
-0.082117036
-0.35890877
0.027116124
0.29215604
-0.32464194
0.1898869
0.104630075
-0.02578793
-0.32782084
-0.011001919
-0.023037534
0.17640802
-0.050583154
-0.3009089
0.00080273865
0.1437228
-0.81928796
-0.11805411
0.01775918
0.015610926
0.05632587
0.09282796
-0.13652414
0.28972584
-0.21994217
-0.12530793
-0.17175098
-0.035988394
0.32350063
-0.44276223
0.026757292
-0.013149316
-1.8928704
0.15498
-0.042834245
0.13791895
0.02544595
0.035663307
-0.08042325
-0.05677304
-0.112181194
-0.025608359
0.039109692
-0.1092604
0.26341847
0.0572456
0.10503235
0.17465995
-0.24075907
-0.0029873825
-0.3056272
0.3372472
0.09649535
0.11691139
-0.002384918
0.18088602
-0.0013037793
-0.047972474
0.088453814
-0.12267035
0.16882582
-0.086438514
0.14520845
0.19644761
-0.3684036
-0.028519535
-0.12944396
0.122807495
-0.31369817
0.10163854
0.4445647
-0.040131602
-0.043965325
-0.14290628
0.08865114
0.35881045
0.067896016
0.056045968
0.17230707
0.20156565
0.82536334
0.048981957
1.5223079
-0.08088474
0.13849454
0.1386927
0.32899007
-0.16575597
-0.2422061
0.0634429
-0.13528286
0.21103722
0.091333255
-0.5055627
0.16835025
-0.06428425
-0.25326988
-0.45521617
-0.0771032
-0.34921548
0.0013251908
0.087539874
0.09501154
-0.11186958
-0.22448687
-0.043496277
-0.10074148
-0.13187023
-0.102314286
-0.1378527
0.06577862
0.1062116
-0.024601473
-0.17985651
-0.46390367
-0.27967742
-0.02506568
0.3306336
0.09435295
0.14144708
0.4307231
-0.29213268
0.026043216
-0.03574326
0.17140128
-0.3868948
0.3331443
0.041803144
-0.20753016
0.217476
-0.005619563
-0.22615182
0.022512037
0.12530895
-0.15334308
0.0682874
0.06798534
0.04347772
-0.008506995
-0.01426607
0.04926711
0.055950575
-0.05462415
-0.106906675
0.069077395
-0.15081689
-0.008629165
0.09379904
-0.13312721
0.25908285
-0.19807217
-0.4035019
0.06213583
-0.055179305
0.09310862
-0.20354092
0.12301627
0.09319306
0.11456414
-0.19135395
-0.165539
0.32593414
-0.09631563
-0.26597348
0.09024764
0.034973398
0.07613912
-0.36368796
0.15284404
-0.027342563
-0.41180593
-0.50332016
-0.025088226
-0.13620275
0.028695388
0.08141491
-5.2381396
-0.041326437
0.09315885
-0.10120836
-0.031147897
0.25019866
-0.04475859
-0.3214069
-0.14415455
0.13814126
-0.018987453
-0.123100616
0.047263633
0.11705176
-0.50394744
-1.6200657
0.054053105
-0.115267456
0.002273464
0.30799115
-0.0061958986
0.05890964
-0.05898504
0.18696593
-0.106749766
-0.43877628
0.13342322
0.11039231
0.035911296
-0.4298465
0.26626202
-0.0050501656
0.10972755
0.051780745
0.2556455
-0.17551495
0.06353617
0.06756134
0.078870304
-0.07540667
-0.0028760703
0.0070466204
0.22078872
0.11763185
-0.1375099
-0.011770714
0.06335744
-0.14590195
0.059610344
0.22836767
-0.3532685
0.0071825273
-0.4095769
-0.08920449
-0.05299009
-0.030616714
-0.0561533
-0.0149703035
-0.0384654
0.17473696
0.14427494
0.18654202
0.2522472
0.3082033
0.039775193
-0.11563947
0.19264252
-0.34007648
-0.2265502
0.03213722
0.018101126
0.08643229
0.06703611
0.19702019
-0.25930557
0.29650244
-0.09566277
-0.17034514
-0.10777061
-0.12007913
0.025408247
0.14773862
-0.0130234
0.45027494
-0.0053480994
0.24527736
0.13707675
-0.006243163
0.23421036
-0.13397722
-0.030125739
0.04856637
0.20965818
-0.11338718
-0.01492842
0.3683315
-0.014772541
0.08149893
0.1423478
0.021735338
0.06319282
0.013876233
-0.14184828
0.17164694
-0.29420754
0.1738312
-0.0900263
0.037913993
0.13971932
-0.051746607
0.062387377
0.11927317
-0.0317511
0.33938393
0.07404093
0.050036803
0.026791805
-0.085933216
0.021326793
0.02539549
-0.028909132
-0.10408605
0.13628902
-0.20907862
0.19193706
0.052146632
0.09492924
0.1921934
-0.36337572
0.036379643
-0.06663864
0.21330795
-0.024653334
0.25199303
-0.07889889
-0.034493867
-0.0024003861
0.079486944
0.02292977
0.062904306
-0.82199115
-0.15264767
0.44921595
-0.18275914
-0.19459581
0.04365866
-0.27932933
0.007691836
-0.13261284
-0.025117263
0.39674017
-0.15131518
-0.06719796
-0.035847027
-0.05230343
0.66421145
0.008147498
0.14622225
-0.47490957
-0.15464947
-0.22687022
-0.020118611
0.00073791563
-0.01167662
0.016459892
0.02614482
0.23224948
0.07195783
-0.23752974
0.07984849
-0.0391821
0.29881877
-0.089229345
-0.1786465
0.17972855
0.19076361
0.12912957
-0.13925968
0.026805244
-0.17226441
0.09149563
0.09469083
0.12317687
-0.0124397855
0.21146283
0.11877106
-0.08573213
-0.109491386
-0.15865122
-0.3334291
0.034563012
0.15133286
-0.01835844
-0.3198026
0.13268092
-0.122847624
0.01909364
-0.0710484
-0.012742427
0.12132322
-0.05533509
-0.2192001
-0.078084506
-0.028647695
0.15095404
-0.08913756
-0.5034032
-0.20755155
-0.025658496
0.3351059
0.27442977
0.060697466
0.11558771
0.084256075
-0.14606299
0.16128121
-0.1945531
-0.07029978
-0.31326148
0.21584453
0.14415513
0.07447476
0.3320719
-0.5215066
0.058252223
-0.12969173
-0.07126704
-0.036505774
-0.07580544
0.26468727
-0.22965382
-0.7439901
0.08240188
0.026139867
0.09565105
-0.20572191
-0.16727488
0.16760682
-0.020561567
0.15340644
-0.35571933
0.2935387
-0.10899193
-0.19222529
0.05747165
-0.19133295
-0.051858
-0.36227694
0.07064383
0.004917802
-0.21796627
0.0435658
-0.009388497
-0.07313943
-0.002407322
-0.25220588
0.06599359
0.043228883
0.12638927
-0.004182784
0.0999761
0.17384715
-0.09663525
-0.23344523
-0.23114938
-0.010618598
0.10988924
-0.15528822
-0.038463574
0.03842593
0.3710286
0.27610907
0.21394263
-0.22452538
0.021439722
-0.35381997
0.030688407
0.07816972
0.094707444
0.2816259
-0.10110498
-0.42845744
-0.0067653074
0.38633513
0.09181785
0.2708127
0.071021914
0.069843344
0.092619024
0.08861485
-0.26845118
-0.1449539
-0.028160393
-0.10771016
-0.04408952
0.038892556
0.03469061
-0.038668286
0.16204569
0.2023763
-0.18259615
0.045012675
0.06270929
0.038135786
0.1770326
0.050397333
-0.40398738
-0.37717307
-0.06259359
0.046715952
0.10626447
0.08826192
-0.0340413
0.22418793
0.07539357
0.13891007
0.060598224
0.23101526
0.042480446
0.14752313
0.11746935
-0.104752995
0.21939947
-0.22726707
-0.26430112
0.037393283
0.079251386
0.071969286
0.08323621
0.4685146
0.052733343
0.11443188
-0.11245219
-0.14659637
-0.066010796
-0.061590753
-0.14832549
-0.423397
0.09736548
0.26227129
-0.36036906
0.049413092
0.15870266
-0.008238523
-0.15186064
0.03881926
-0.13772509
0.18511473
0.10033784
-0.039991587
-0.014420171
0.24243818
-0.2403832
0.11034034
0.017620763
0.40078512
0.10557378
-0.07269663
-0.14435445
0.009047176
-0.26155555
0.13848355
-0.12321156
0.06841883
0.12347553
-0.31635046
0.070787944
0.06644048
0.08984837
-0.15147105
-0.1548402
-0.0041917376
0.02968744
0.24026647
-0.067561306
0.047640517
-0.1044088
-2.1862893
0.3246601
0.14217235
-0.12890835
-0.1346795
0.03168218
0.16563472
-0.41241392
0.07818229
-0.16947277
0.25468203
0.072545215
0.105559066
-0.13713384
0.15944609
0.04957876
-0.10418553
0.094406195
-0.14034328
0.020933865
-0.04078975
0.14092633
-0.111264236
-0.7905342
-0.033579353
-0.068000935
-0.0033393218
0.17399141
0.17349535
0.06131588
-0.076943316
-0.08592837
-0.2838597
0.07253777
0.08986638
-0.047403745
0.26692653
-0.26074764
-0.2041323
0.60798776
0.083569676
-0.1690997
0.03177741
0.026820723
0.14476572
0.11610403
-0.27626756
-0.23608726
0.051716577
0.00808094
-0.06932932
0.06794192
-0.35035238
0.18971987
0.23436761
0.079556055
-0.10866594
0.11489959
0.20012777
0.029418245
0.09246334
0.114742175
0.013674801
-0.10970608
0.19028103
-0.08570479
-0.088001244
-0.136133
-0.24341099
0.034542862
0.12551072
-0.020415287
-0.23570953
0.09553585
0.06311696
-0.054889426
-0.080121
-0.048892714
0.085244335
-0.22466743
-0.03812066
-0.09925323
0.0465135
0.19756223
-0.24393548
-0.06434358
-0.14530224
0.09848181
0.113175094
0.15222187
0.20096484
0.32353714
0.007223664
0.084119655
-0.03859445
-0.041188102
-0.08164024
-0.050285522
0.008674347
0.04544012
-0.058789566
0.21517982
-0.10914426
-0.07049724
-0.12224432
0.04848678
0.16461438
0.104997754
-0.05224914
-0.00082674273
0.07537067
0.24169861
0.06588363
-0.046062138
-0.19273776
-0.014768577
-0.08525328
-0.02554357
-0.11093122
-0.10443812
-0.16190995
0.071854904
-0.031544868
0.038628463
-0.053111464
0.12680948
-0.07437304
0.14926095
-0.13639554
0.29149222
0.147539
-0.05736186
0.023337368
0.019299466
0.179548
0.23496182
-0.010456473
0.0010996183
0.16512245
0.055136956
-0.012719475
-0.06346774
-0.40403065
0.20019436
0.0328534
-0.17283618
-0.19027865
0.05916754
-0.58398753
0.07933441
0.110840455
0.12558672
0.0016275424
-0.06370362
0.21223217
0.013141851
0.03993177
-0.20014858
0.11051514
-0.051972702
-0.28936732
0.12100577
-0.1799012
-0.2630003
-0.33173898
0.34255695
0.05151379
0.11284307
0.059439912
-0.031675022
-0.12707494
-0.16871516
0.10546346
0.037922665
-0.0425593
-0.074404255
0.15018697
0.13218814
0.053245395
-0.18915899
-0.11203528
0.41424698
0.24670884
-0.07117826
-0.1172913
0.021083388
0.09801327
-0.3029825
-0.03204945
-0.16282232
-0.05835265
-0.3295485
-0.04135464
0.028518492
0.1005819
0.30638617
-0.04478003
-0.1298367
0.09957617
-0.16160457
0.013164425
0.26648682
-0.018168446
-0.40209094
0.105144374
-0.01536545
0.13798551
0.015587252
0.028562985
-0.36642313
0.08008379
0.045352604
-0.041458137
0.039320834
-0.09557499
0.04681589
0.09277956
-0.04277548
-0.040178806
0.026780339
0.09465408
0.110978
0.019969862
-0.2578415
0.1745463
-0.11129809
0.19731498
0.10369372
-0.07897476
-0.25130686
-0.1445939
-0.23504134
0.1535766
0.11281954
0.030755766
0.08339837
0.23004217
-0.1219097
0.043218482
-0.36197084
-0.481377
-0.06710099
0.03145994
0.13791075
0.06590638
0.06843048
-0.36707574
0.0062964633
0.12628913
-0.12902999
0.16879655
-0.16331626
0.09543705
-0.08712291
0.024416272
-0.06323272
-0.0453995
0.1662625
-0.08135777
0.1878329
-0.014906835
0.1114341
-0.022458738
-0.035627127
0.032592416
-0.19730495
0.026418624
0.013284238
-0.10272108
-0.10361907
-0.07195212
-0.0034416253
0.06248529
0.15796544
-0.15841505
0.09485522
-0.048915368
-0.06356558
0.1572675
0.25725445
0.188025
-0.020432254
-0.16141044
0.049453277
-0.008810727
0.09435932
-0.009473676
-0.26853663
-0.03546156
-0.09451469
-0.14293508
0.03432033
0.010782298
0.2526297
-0.19645794
0.037436493
0.22651277
-0.19804108
0.05627992
0.080928
0.09167417
0.28389442
0.037517134
-0.24099311
0.07010788
-0.097789936
0.057205927
0.09454137
-0.12707178
0.24509417
-0.106205866
-0.13250597
-0.26716432
-0.1270384
0.22537728
0.11102663
0.108992346
0.17783242
-0.37487847
0.17442684
0.14647076
-0.08120113
-0.011084023
-0.038792096
0.003385473
0.04290207
0.2252017
-0.02333551
-0.056692027
0.34642678
0.2143115
-0.22903241
-0.08918753
0.23019643
-0.1835665
-0.026884414
-0.012523142
-0.07788046
0.0054271305
0.21100764
-0.16109608
-0.075857356
-0.698703
-0.2521432
0.08508157
0.16067734
0.055854496
0.105404876
-0.052976657
-0.0036109788
0.054376703
-0.2169908
-0.40774697
0.09951713
-0.0327145
0.08261621
0.09746093
0.18920101
0.107223086
0.11059953
-0.12406992
-0.0052510193
0.06634981
-0.12517293
0.0019666895
-0.02272751
0.0758009
0.21954308
-0.04120556
-0.007233745
-0.17548671
0.01983581
-0.094163656
0.07607334
0.14406756
0.1435575
-0.022038652
-0.062489018
-0.04015519
-0.007943697
0.14805883
-0.01500902
-0.33374274
0.07721645
-0.13856673
-0.8549819
0.01782274
-0.08987502
0.16220576
0.01675138
0.15386002
0.19245933
0.11929415
0.09371862
-0.49233973
-0.086523145
0.074498996
-0.003450582
-0.5169628
0.23015726
0.054399807
0.38044629
-0.109389916
-0.013480205
0.32992744
-0.302479
0.10112382
0.19465184
0.003606002
-0.05375826
-0.18107803
0.0054005496
0.14847945
-0.19468127
0.12705855
-0.13745213
0.6706533
0.017583713
-0.48304757
-0.050429605
-0.049128268
0.20616971
0.19813247
0.12385784
0.05231127
0.11108494
-0.14686881
0.32578948
0.031274326
0.23759553
-0.05073785
0.009453356
0.15466447
0.053725936
0.029666657
-0.16116366
-0.09984839
-0.3010007
0.09629434
-0.11525518
0.10848548
-0.13081816
-0.25466043
0.65169406
-0.13294797
0.40161663
-0.021047033
-0.29720652
-0.0728626
0.08180544
0.10855861
0.06353038
-0.02374107
-0.11317176
0.12707576
0.009435085
-0.15348922
0.23242366
0.10563096
-0.23260005
0.055431876
0.02737515
0.03141347
0.026692122
0.07174781
0.36330372
-0.06322927
0.10342192
-0.034620743
0.26694855
-0.097746104
0.124624886
0.28535464
0.07214
0.10066982
0.73017216
0.1743153
0.10475831
-0.059148144
0.14673875
0.23869896
-0.11261859
0.10595429
0.15677309
0.62961215
-0.14849667
0.08590093
-0.093660966
-0.0053075138
0.11002328
-0.25950515
0.12297645
-0.07172317
-0.11037288
0.15424752
-0.08930177
-0.27560535
0.07931254
-0.44568014
0.41428462
0.015451466
0.081138805
-0.101036966
0.045362838
0.09766984
-0.4957257
-0.21309002
-0.094583526
-0.076251216
0.19341613
0.108092345
-0.028064022
-0.035231244
-0.09792088
0.48960721
0.31962314
0.03003864
0.122591324
0.05472653
0.04187279
0.008423409
-0.30317864
0.1545321
0.040556867
0.037632085
-0.049114764
-0.07251738
0.01880475
0.044549864
0.07671896
-0.07985919
-0.07190005
-0.029420013
-0.025373861
0.57118374
0.18516855
0.031615034
-0.03759149
-0.40031692
-0.04725812
0.058326434
0.032856904
0.009162051
-0.1774521
-0.16290471
-0.11622813
-0.058031876
0.067761384
0.00023115845
0.083532065
-0.11525637
0.012687428
-0.10743715
-0.06355589
-0.050871305
0.09116329
0.06273045
0.16836247
0.07880243
-0.22568448
0.062082656
-0.15917501
0.032601707
-0.04508596
-0.008781012
0.24852042
0.13309383
0.063929886
-0.18844204
-0.1443767
-0.07291818
0.07516797
0.08277276
0.18164693
0.023417173
-0.48040488
0.03229765
-0.07080334
-0.0415558
-0.050029133
-0.008900775
-0.0036681655
0.18893015
-0.03482358
-0.102815896
0.0062700463
-0.32322633
-0.18522237
-0.01926856
0.15930896
-0.25941458
-0.066731595
-0.019217286
0.02500996
0.048225358
0.17464337
0.25235805
0.05105779
0.004059425
-0.1256272
0.021319404
0.15948889
0.082100004
0.107948974
0.01368364
0.008016891
-0.16674717
0.021911804
-0.11469393
-0.13725957
0.14239024
0.09289629
0.0060381563
-0.0030719028
-0.087746575
0.27391487
-0.099060684
0.12103426
0.03523846
0.09155896
0.0059999796
0.043968286
0.054391947
0.14753859
-0.08475055
0.060693424
-0.14804222
0.011289008
0.0842015
-0.51616156
-0.1710387
-0.18202488
-0.07956094
-0.014576717
-0.043794025
-0.008945998
0.03221629
-0.0046660937
-0.16786012
0.25592196
-0.14162534
-0.0032623336
0.095013164
-0.07085347
0.4159342
0.008310112
0.20686099
-0.051850963
0.116578765
-0.1791465
-0.020333352
0.03596014
-0.015644357
-0.108614735
0.122861914
0.10800544
-0.014878107
-0.110248275
-0.10326884
0.10633085
-0.13625203
0.18887724
0.08037508
0.13049313
0.008012877
-0.005570698
0.022127487
0.0752989
0.037397485
-0.08841564
0.17165025
-0.12771769
-0.1661218
0.16503894
-0.16390926
-0.18481201
-0.06740779
0.017596353
-0.076512665
0.1079366
0.10480394
0.055140454
-0.13969699
-0.18108869
-0.011588883
0.015024222
-0.103174545
0.09837273
-0.13338771
0.051837113
0.18735684
-0.122259684
-0.08567107
-0.15554135
-0.054668527
-0.111432746
0.16810374
-0.15297256
0.036655746
-0.27534556
-0.05525024
0.26558214
0.14412597
-0.1904871
0.07351115
0.07676292
-0.110889055
0.0053562038
-0.035866227
0.11455193
0.27868766
0.7385483
-0.07691696
0.20864083
0.054838337
-0.001058226
0.033036217
0.021160277
0.038392324
0.052888848
0.018426172
-0.25687084
-0.086241744
0.05214171
0.042683594
0.032958798
-0.12825413
0.08515724
0.3287987
-1.8153424
0.094184496
-0.03614012
-0.17701736
0.08499621
-0.064483345
-0.029127415
-0.050845332
0.024940262
0.20738125
0.15206493
-0.04411975
-0.11456898
0.34199885
0.13713478
0.045690876
-0.24975397
0.18332225
0.09667126
0.21772921
-0.09828139
0.15532899
-0.0028743565
-0.040626537
-0.41940126
0.23770975
0.23212655
0.115139365
0.07227613
-0.28754982
0.017755639
-0.1390973
-0.48032886
0.16531754
0.05422275
0.032112785
0.13670315
0.017900202
-0.74187136
-0.012418149
-0.27911973
-0.44891587
-0.07028183
-0.0007451228
0.086527735
0.004750242
0.15003198
0.054250296
-0.17004679
-0.23300296
0.040603224
-0.06279517
-0.078193404
0.07372921
0.024554156
0.04597568
0.15995951
-0.2151861
0.006447984
-0.06015554
0.0051346845
0.047746565
-0.0147265345
0.36450547
-0.02803174
0.25187016
-0.0036355688
0.04507895
-0.03591642
0.13309915
-0.14574179
-0.016392708
-0.03378375
0.02056471
-0.015148118
0.14662425
0.076739274
0.03409243
-0.16098276
-0.30865908
-0.11837694
-0.11767971
0.16699733
0.20240629
0.3576993
0.18257825
-0.20099941
0.05604992
-0.12941432
0.16686013
-0.08221724
-0.6187574
0.21213068
0.14953959
0.039098833
0.06279624
-0.81555873
0.18836017
0.048410352
0.0664308
0.14512692
-1.0242093
0.099192746
0.04219299
-0.056518853
-0.072041646
-0.046580058
-0.0071259914
0.07449978
0.17353898
-0.03703963
-0.124421746
0.479861
-0.12825969
-0.15459569
-0.08680616
0.1436643
-0.16832657
0.20720771
0.062063023
0.19506024
0.57769746
0.15863732
0.10046158
0.23470362
-0.5644988
-0.036358163
0.17680494
0.172426
0.10119156
-0.43546695
-0.082062796
0.027126804
0.0842858
-0.13994467
0.19017507
-0.052972965
-0.25435054
0.09597542
0.36242384
-0.15967116
-0.33035752
0.15373458
-0.087286405
-0.08236668
0.13044201
-0.25474465
-0.04830494
-0.08449754
0.099191576
0.122339584
-0.051172573
0.041618135
-0.14672138
-0.048324574
0.13114062
0.3348279
0.14459173
0.31201276
-0.032644495
-0.049420137
-0.103901744
-0.0011135263
0.123059876
0.053095605
-0.14267233
0.1373742
-0.11379911
-0.31377757
-0.040654473
-0.10768909
0.14379881
-0.092788495
0.1512145
0.19264948
0.10253457
0.2220085
-0.25644594
-0.067552246
0.3434099
-3.2122295
-0.5524813
0.01918002
0.012277899
-0.13477978
-0.07525071
0.039556146
0.111327566
-0.20426087
0.08743421
0.49281645
-0.008947853
-0.0024943938
-0.104305506
0.049620464
-0.118402004
-0.13646762
0.12789807
0.083432466
0.017426422
-0.07249856
-0.2376282
-0.019437354
-0.1498528
0.22681463
-0.103005394
0.121491544
0.04977489
0.06988081
-0.18849714
-0.080808155
0.11110781
0.1408379
-0.20016664
0.22093481
-0.1961166
-0.15715142
-0.1514238
-0.15283583
-0.08871555
-0.03957774
0.030787453
-0.2156587
-0.055541642
-0.3561016
0.05957657
0.012467391
-0.074145816
0.16544011
1.4303322
-0.28250235
0.0045771827
-2.0397663
0.100358486
0.38798934
-0.019698903
0.13535926
-0.33495656
-0.31321648
-0.20081289
0.20649937
0.05366906
-0.1945763
0.006588133
0.017214974
0.076694354
0.11739701
0.13126233
0.15597068
-0.20457084
0.16942008
-0.022409203
0.08769834
-0.15310584
0.04818146
0.071505845
0.42737636
0.20993063
0.13430962
0.31908685
0.10222545
-0.069333754
-0.08610688
0.052379806
-0.060872324
0.33962455
0.1837073
0.28142682
-0.047201633
0.35172188
-0.27596477
-0.20733695
-0.17839292
0.0327823
0.14433706
-0.20753951
-0.109514676
0.19683455
-0.4385975
0.039319474
0.16325296
-0.05330999
0.10500123
0.17938174
0.07251598
0.1697905
0.1020685
-0.004455366
-0.37115392
-0.06385924
-0.05884537
-0.0117777875
-0.4759262
0.047483113
-0.13455689
-0.0019552803
-0.02450201
0.027579153
-0.046491113
0.05013785
0.1131486
0.023549251
0.06545166
-0.033404294
-0.4232983
0.18413657
0.25450966
-0.082001336
-0.025436457
-0.12492773
-0.07654336
-0.06480415
0.13299944
0.14510426
0.023155546
0.17456765
0.17985173
0.21849409
0.030113736
-0.39393938
0.021200594
-0.10873561
0.34165132
-0.07800027
0.100739226
-0.12877043
-0.06078546
-0.20234798
0.043016247
0.34143952
-2.8700485
0.099206574
-0.09377402
-0.37139052
-0.124379024
0.08467712
0.06268722
0.23094875
0.03661807
0.10716409
0.11326273
0.35535222
-0.18163215
0.052954588
-0.18016887
0.47483113
0.3266388
-0.2747042
0.19743635
0.06870203
-0.08787665
-0.23470356
0.2060145
0.18182757
0.10740378
0.07512889
0.13461919
-0.12770593
-0.35045907
0.026617616
-0.04094095
-0.07902439
-0.052265722
-0.028425882
0.0003739598
0.17079826
-0.02283862
-0.17960873
-0.12113187
0.010066069
-0.03186159
-0.2697837
0.09285727
-0.035198804
-0.06770012
-0.05124711
-1.0769552e-05
-0.017250657
0.16366152
0.38857305
-0.035791233
0.16225412
-0.0010583594
0.042704016
0.3452514
-0.35636213
0.0032242276
0.22152805
-0.05065533
-0.115885615
-0.004309858
0.2820053
-0.07937304
0.082992315
0.08263825
-0.074261695
-0.026968185
-0.22202513
0.02965948
-0.104720615
-1.8724555
-0.08450131
0.17773563
0.019137781
-0.12837656
0.10673067
0.07308743
-0.13887677
0.881672
-0.144256
-0.2429173
0.121113904
-1.048932
0.25702855
-0.16957605
0.1338994
-0.09558277
-0.12825938
0.008350587
-0.07796388
0.05955437
-0.31470257
0.31440982
-0.043903857
0.057579536
-0.07218335
-0.19681899
-0.22169025
-0.021594713
0.11428092
0.3196001
0.1440334
-0.26368448
-0.19230281
-0.016323594
-0.17893547
-0.098431446
0.10876035
0.012066918
-0.06959639
-0.12483132
-0.11471227
-3.1451519
0.047356028
-0.29279077
0.0057638185
0.30121905
-0.09399787
-0.24467464
0.15348807
0.087681904
0.1526405
-0.0801709
0.10421258
-0.055512022
0.36655816
0.24522842
-0.2734625
0.026887776
-0.11841109
0.12487479
0.632762
0.09232575
0.029316558
0.10720805
-0.19082583
-0.15698852
0.1536769
0.17032872
-0.19481988
0.081148
-0.00934303
0.4664203
-1.2413993
-0.09318459
-0.063848116
-0.011710345
-0.052499764
-0.13444518
0.21223366
-0.36881924
0.21080074
-0.35263956
-0.11054588
0.001490661
0.061753657
-0.24029607
-0.08661655
0.2905791
-0.1487919
0.20077735
-0.09057399
0.17147
0.41186914
0.3740939
-0.17319502
0.18986751
0.10233739
-0.077731155
0.016818292
-0.024415687
0.11196008
0.025633438
-0.13646902
0.031487953
0.27941838
0.0048261657
-0.076785505
-0.066866055
-0.14893958
0.026464174
0.3838704
-1.7794533
0.14971322
-0.062979996
-0.072925285
0.12894778
-0.028680524
-0.17879874
-0.14561306
-0.03969571
0.19648606
0.2882263
0.03446105
-0.014573319
0.34491864
-0.033628304
-0.08211474
0.12422465
0.25881642
0.10346059
0.34744528
-0.13747807
0.29170808
-0.19373761
0.061182145
-0.32215452
-0.018382711
-0.43832397
0.05731689
0.057787523
0.00020689101
-0.06063249
-0.22726576
0.029194845
-0.29364303
0.06251383
0.05696905
0.4178414
0.037186336
-0.083913565
-0.04019113
0.019673958
0.100187056
0.18681139
0.049642242
0.09272606
-0.0010704314
-0.023705922
0.11130108
-0.050852254
-0.48901424
0.67833364
0.06263867
-0.091936305
-0.1990654
0.008336593
-0.07981643
0.13747494
-0.24497677
-0.16077375
-0.28311634
-0.17045839
0.018026134
0.030976953
-0.28150025
-0.06440121
0.004781421
-0.35871032
0.3576187
0.18043607
-0.025490064
-0.052418146
0.008353495
-0.13350047
-0.030355874
-0.12960513
0.19248593
0.09658686
0.007343342
-0.10090421
0.016460398
-1.0750351
-0.49927074
0.18524526
0.15524065
0.04993496
-0.1316811
-0.17518018
0.049778156
-0.15845518
0.26469696
0.121199735
-0.9434122
0.2019791
0.056410443
-0.053524524
-0.5910032
-0.39249033
-0.14802231
0.044265978
0.0620557
0.12625453
-0.0027357095
-0.0998046
0.0482284
-0.05185781
-0.033909675
-0.055104867
-0.13070098
-0.0018442213
0.093643956
-0.030092986
-0.19698384
-0.58903605
-0.21201418
-0.017008806
0.8558924
0.114984944
0.061338525
0.06875797
-0.113371424
-0.28161672
0.063223846
0.183504
0.21112438
0.046779595
-0.304905
-0.2221338
0.012941254
0.49661595
-0.04129423
-0.5539283
0.018810948
-0.11043945
0.17283429
-0.20018788
0.39189443
0.20087585
-0.184133
0.10280152
0.34094158
-0.049125116
-0.09085652
0.20184427
-0.10760304
0.13070767
-0.080828875
0.3929847
0.041587375
-0.24405688
-0.033595968
0.06665724
-0.13301589
0.14368656
-0.16806649
0.21054834
0.1131969
0.3141696
-0.22583127
-0.15199924
-0.04973225
-0.06633724
-0.15697546
0.11903056
-0.25638348
0.10351991
-0.30823013
0.1624182
0.026236933
-0.38874444
-0.003500759
-0.22757728
0.027153406
-0.02772484
0.200735
-0.026104862
0.105536304
0.13760415
0.33167833
0.10371179
-0.016865795
0.12647128
-0.13307527
-0.08295618
-0.06186586
0.19243123
-0.11586555
0.052472048
-0.2048503
0.3602329
-0.12023818
0.23007649
-0.1182352
0.04608676
-0.17784221
0.063477285
0.0030931176
-0.29935947
-0.0045064418
0.051985215
-0.582978
-0.22975737
-0.10552614
-0.062593535
-0.022062728
-0.1026322
-0.37166655
0.07685002
0.059486482
0.2431036
-0.17637546
0.0025854327
0.08522733
0.26768446
-0.06244375
-0.0057215714
-0.0625592
-0.043795157
-0.096462056
-0.14464186
-0.05298256
0.07427923
0.004055239
-0.03532997
0.011341864
-0.34358343
0.08443074
0.31869215
-0.21317162
0.098190725
0.026359603
-0.19800162
-0.31322157
-1.552692
0.1465986
-0.14310154
-0.01998894
-0.03197562
0.14140378
-0.03236454
-0.110298514
0.20236573
0.14590727
-0.17720124
0.022514416
0.0018336178
0.0496745
0.03537385
0.13520698
-0.44896135
-0.2239621
0.023687733
-0.06549664
-0.070603915
-0.15007041
-0.08567912
-0.39419287
0.110780716
0.6111479
-0.08462718
0.15464927
0.15604714
-0.01808092
-0.12539141
-0.05264868
-0.042105656
-0.076920636
-0.12940459
0.20684902
0.05126679
0.40594265
-0.15991646
-0.13501018
0.107029684
0.09237738
0.03980646
-0.0070415395
-0.12174954
0.29181898
0.078298874
0.10700287
0.1631579
0.49746045
0.09195887
-0.39160073
0.04713214
-0.080353655
-1.4973432
0.29361102
0.41719264
0.20148495
0.07313598
-0.02615471
-0.1475483
0.0973571
-0.07988414
-0.009944298
-0.12945727
0.19373706
0.31072992
0.09758635
0.09587851
0.056149237
-0.29321122
-0.020620083
-0.15476401
0.067966186
0.29018417
0.33788076
-0.028033413
-0.15724859
-0.040383507
-0.0677018
0.08354439
-0.11168408
-0.0736391
0.3093527
0.09136857
-0.011445668
-0.012429577
0.06279225
-0.15148334
-0.13090262
0.22824831
-0.025905857
0.24958977
-0.006352362
-0.050840598
-0.0587553
0.11521502
0.017733349
0.074239194
0.13012116
-0.06874223
-0.027426654
-0.04655571
0.01658087
0.029412597
-0.07781289
0.025291197
-0.17260696
0.3637362
0.36233386
-0.21107057
0.06976051
-0.10692036
0.28070286
-0.03686501
-0.18502131
0.21374999
0.027115213
-0.26335832
0.09251412
-0.2879081
0.08981209
0.11251827
0.08048033
0.13875245
-0.40034422
-0.25201604
0.15590194
-0.0829886
-0.09789648
-0.072192155
-0.13439342
0.053680565
0.17557131
-0.03603282
-0.2226161
0.010784553
0.2192738
-0.011239873
0.21383327
0.10258355
0.092285305
0.012197809
-0.21697393
0.16487174
-0.021780472
0.19130236
0.00015324657
-1.0529467
0.07416865
-0.008674174
0.048157535
0.21647336
-0.095063426
0.18338612
-0.021669596
-0.09133681
0.12659204
0.092284024
0.32597068
0.04610638
-0.08556477
0.3589662
-0.018764038
0.02920135
-0.043952204
0.037608508
-0.12059956
0.056011878
-0.048220195
-0.09193592
0.25185186
-0.1791859
-0.05281688
0.0476472
-0.085554585
0.017301911
-0.17140867
-0.21879882
-0.016858777
-0.24991283
0.20931952
-0.15520713
0.08070851
-0.060996126
-0.20559803
0.051650435
-0.2934756
-0.0190585
-0.50635725
0.11942589
0.14047967
-0.24885778
-2.6082277
-0.021066435
-0.0992705
0.075678006
0.12084952
0.118587635
0.032548096
0.09360684
-0.20955454
-0.00928696
0.21214879
-0.042486053
-0.10718485
-0.11068327
0.09590811
-0.012053561
-0.093812324
0.13057943
-0.108244814
-0.46347526
-0.40787423
0.13562226
0.036422137
-0.061985653
0.349482
0.017026698
0.18673532
-0.029121224
0.07859558
-0.03629385
-0.08729607
0.2570313
0.13268574
0.12600598
-0.35946584
0.0830958
0.097704515
0.10515402
0.058255233
0.25469422
-0.14198482
0.21081513
0.10812595
-0.1981775
-0.06554253
-0.031787626
0.08242061
0.13393266
0.054914374
-0.12755185
-0.026810624
0.0816347
-0.0378619
0.029551698
0.21853831
-0.18512088
0.18402064
-0.5657052
-0.10330976
0.055676736
0.18959713
-0.14436951
0.018417066
0.027116876
0.03542616
0.30292737
0.061567277
-0.010878386
0.020524137
0.096748605
-0.013263963
0.21165752
-0.28561896
-0.11046827
0.0012842657
-0.043312784
0.23064995
0.047408335
0.21484964
0.057394937
0.25482786
0.022695772
-0.34240177
-0.096364774
-0.08208524
-0.023469191
-0.24759445
0.18534294
0.18870822
0.20395999
0.09899327
0.20868099
0.01891909
-0.19805552
0.14875114
-0.015254525
-0.07478895
0.26088396
0.17824806
0.112907015
0.1250558
-0.19837473
0.14303656
-0.036618184
0.20004867
0.037551068
0.1461874
-0.15282889
0.054682273
-0.33406252
0.02320101
-0.14657354
0.060805645
-0.00024308644
-0.0790824
0.08294657
0.21151632
-0.033074263
-0.6658749
0.30723497
-0.4352594
0.060250156
0.088260055
0.48779282
-0.09827357
-0.026439276
-0.026630908
0.25808024
-0.11491168
-0.27219167
0.049116243
0.07382011
0.1129874
-0.036576264
0.050332516
-0.051778197
0.006255012
0.013660414
0.28754383
-0.06674953
-0.1430176
-0.046173345
0.0116446735
0.10559166
-0.18273374
-0.32621184
-0.07780319
0.074999474
0.09867594
0.09295593
-0.05135634
-0.3806598
0.12014121
0.12601645
-0.1001042
0.102155566
-0.115561515
-0.0466935
-0.07661077
0.076901026
0.60391235
-0.051839236
0.050966453
-0.123412415
0.0049077766
-0.36120698
0.05900874
-0.027052188
-0.0628206
0.21828319
-0.1629421
0.29889527
0.12779503
-0.21207166
0.083672486
-0.041995756
-0.045421597
-0.09703605
-0.22212048
0.22915307
0.22192591
0.063373476
0.14663447
-0.1510971
-0.1545605
0.14121556
0.12947445
0.14364612
-0.08231557
-0.01903132
0.33299208
-0.08809919
-0.056279674
-0.123224616
-0.26580653
0.099664085
0.12932748
-0.034407355
-0.1819688
0.14122947
-0.14523661
-0.008300312
0.25374395
0.08769184
0.11515072
-0.26546308
-0.120665036
-0.023265934
0.06017967
0.17707638
0.1393453
0.06775888
-0.1442824
-0.057731066
-0.01601786
0.32627973
-0.078930706
-0.013644415
-0.051291835
-0.07381869
0.052465715
-0.19961089
0.20934995
-0.072813444
0.09594983
0.24279155
0.038765658
-0.079865746
-0.34921542
0.21293181
-0.11690475
0.0064107543
0.1434423
0.28515077
0.23559813
-0.19567642
-0.4952842
0.08487467
0.1042576
0.13981791
-0.19158924
0.07424129
-0.12667799
-0.0253482
-0.2009628
-0.4193499
0.08494121
-0.120195754
-0.14982243
0.043063514
-0.119762965
0.0830856
-0.63568616
-0.044675417
0.007125158
-0.29536083
0.11507445
-0.16159093
-0.07655154
-0.012480763
-0.01997652
-0.08046121
0.14380592
0.15451953
0.16485134
0.21479987
0.13318907
-0.098106295
-0.19449355
-0.18857542
0.037841577
-0.017195405
-0.10824413
-0.07609452
0.5289067
0.28678685
0.35056758
0.14666496
-0.0648023
0.019426992
-0.2837378
0.16411002
0.18232757
0.026286276
0.18215597
0.053453747
-0.4345323
-0.024361342
0.27348128
-0.0938015
-0.16105635
-0.087222
0.015482684
0.09501092
0.13672912
0.03711592
-0.12025305
-0.13143453
0.025364798
-0.18686673
0.04719008
-0.100191265
-0.008752033
0.13910258
0.23376983
-0.12687716
0.015612166
-0.022288095
-0.026249697
0.11231098
0.07106914
-0.23476465
-0.27516994
0.18959865
0.10001798
0.02856302
-0.07384292
-0.083466746
-0.26008788
0.12901069
0.15365577
-0.15676512
0.088160574
-0.034128547
-0.07650896
0.16226198
-0.017223584
0.22983715
-0.18157111
-0.16501886
0.07562235
0.06363691
0.22092566
0.112152904
0.24454251
-0.25823236
-0.048896916
-0.1992435
0.05705137
0.16301925
-0.036634665
-0.09471349
-0.13524173
0.017586265
0.192053
0.015472493
-0.010312988
0.2349404
0.080059946
-0.052671667
-0.14880909
-0.055819053
0.07407828
0.120952286
-0.2646384
-0.035623245
0.19473578
0.08789625
-0.0036034975
0.1368826
0.4323076
0.08018762
-0.08224082
-0.1352634
0.06517081
-0.27753186
-0.007878011
0.19178768
-0.13449055
-0.14896688
-0.22028726
0.09868403
-0.07489768
0.10647002
0.10577424
-0.123573914
-0.15277758
0.00024871813
-0.07409373
-0.33758673
0.05444094
-0.14375038
-1.7075578
0.23209463
0.3634774
0.16736656
-0.101183705
0.04213265
0.18910737
-0.35723296
0.10581734
-0.1799805
0.2573602
-0.09686111
0.286276
-0.11556045
-0.18468028
0.0027694814
-0.067359775
0.15039197
-0.22272345
-0.0135477
0.07223843
-0.21043748
-0.064005494
-0.27333492
-0.09593949
-0.12788953
0.1517094
0.2609827
0.055216517
0.0143584665
-0.13749248
-0.08488143
-0.2511543
0.098866224
0.21164587
-0.01571764
0.24974562
-0.19633584
-0.16138315
-0.37458646
0.027380899
-0.07850189
-0.41201633
0.020754326
-0.0029991353
0.017176336
0.047156386
-0.22810502
0.06893071
-0.012860544
-0.060225796
0.0710918
-0.13463469
0.21765763
0.21548714
-0.013303448
-0.06618423
0.107942425
0.3713893
0.033137694
0.11569375
0.14086956
-0.38483712
-0.11892086
0.20312874
-0.08651902
-0.05812845
-0.07970396
-0.23283462
0.05405978
0.1038621
-0.014981094
-0.26836285
-0.034624998
0.03031882
-0.022796934
0.04961323
5.0108414e-05
0.08464921
-0.09436283
0.11897892
-0.17580687
0.027203845
0.24602547
-0.17270055
-0.02534109
-0.24978748
0.26270354
0.120016925
-0.03375262
0.012035922
0.3723174
0.1315489
-0.03356341
-0.10203141
-0.058073018
-0.5226913
-0.19494249
-0.0308867
0.22995114
0.024892377
0.36588848
-0.009807419
-0.092155345
-0.11918602
0.076543696
0.19418743
0.035745505
-0.095697574
0.10696515
0.11185454
0.32219177
-0.027172966
-0.13248852
-0.18936047
-0.110897854
-0.0889061
-0.086325735
-0.2001444
-0.08467597
-0.102074005
0.12882212
-0.045593396
0.052274756
0.051326286
-0.15527725
-0.06355527
0.24517398
-0.011123445
0.014406563
0.12820421
-0.3605095
-0.26978064
0.04624403
0.19177227
0.08790556
-0.09218964
-0.12394017
0.15184253
-0.005635074
-0.026468331
0.031605583
-0.36962932
0.1425414
0.007171238
0.17973924
-0.23000571
-0.023577545
-0.7133098
0.20968239
0.13511612
0.10865213
-0.12090695
-0.032568492
0.4546021
0.01519428
0.17984666
-0.21121682
0.13003418
-0.22885728
-0.018959438
0.35212535
-0.29654604
-0.4776571
-0.36964077
0.44507012
0.16767617
0.175127
0.10677099
0.015782041
-0.15255831
-0.15818661
0.3118269
-0.20397605
0.10095433
-0.035551615
0.34180868
0.13082388
0.08218998
-0.18440977
-0.10135505
-0.08077878
0.41684777
-0.08341444
-0.004444115
-0.16198264
0.24829903
-0.7348359
-0.056137778
-0.22873718
-0.11814985
-0.30441162
-0.3204931
0.011169952
-0.030992256
0.13060175
-0.15913522
0.0069851945
0.18255457
-0.25889453
-0.21000353
0.22305512
-0.009295818
-0.59853673
0.05152061
0.112735145
0.1265987
-0.03449191
-0.04904686
-0.41657904
0.17505631
0.11643695
0.08371941
0.07853158
-0.12703499
0.038795356
0.35911384
0.12282682
0.033511687
-0.20533502
-0.06750709
0.08245384
-0.00782792
-0.24520713
0.15779603
-0.003076776
0.30111152
0.11561952
-0.291004
-0.05291665
-0.12871313
-0.30622146
0.23774685
0.37527677
0.14770617
0.22899629
0.2928212
-0.10307751
0.29125705
-0.37745383
-0.08502099
0.11470114
-0.0032706347
0.15705131
0.0039410354
0.123354346
-0.2679118
0.044938568
0.021388004
-0.039440658
0.1702423
-0.19941626
0.19626221
-0.199838
-0.021371132
0.013085038
-0.08173878
0.12591864
-0.28856772
-0.1605605
0.07016117
0.11966236
0.037461966
0.038182087
-0.13803212
-0.16951151
0.29536197
0.031572193
0.045844823
-0.11139796
0.0084173875
0.028851407
0.13047414
0.21242851
-0.5019319
0.3386085
-0.018791528
-0.17983691
0.36909798
0.16171221
0.25523967
-0.05688527
-0.020373186
-0.085805364
-0.069911376
0.080994405
-0.2866921
-0.14286384
0.13634658
-0.2591454
0.02542834
0.006213272
-0.09518458
0.21426868
-0.35827127
-0.15716451
0.44840574
-0.2534082
0.29834688
0.10960199
0.09531299
0.2613814
-0.024458766
-0.23695956
0.06960828
-0.13154864
0.15520667
0.21318626
0.068995014
0.31473354
0.034934398
-0.3072002
-0.28250238
0.08150068
0.40050304
0.19047503
0.12628138
0.2622384
-0.29768965
0.035021182
0.1302103
-0.06686922
-0.07432633
-0.03566977
-0.02721837
-0.022779958
0.31494695
-0.024629083
-0.024032133
0.34720793
-0.0433327
-0.14058708
-0.22023392
0.2010094
-0.17960995
0.055969737
-0.2401674
0.25659475
-0.04943239
0.25498265
-0.029909799
-0.106581874
0.1421282
0.11473159
-0.007723294
-0.42287287
0.2158742
0.1351329
-0.0893233
-0.08354634
-0.1254093
